{"learner":{"attributes":{},"feature_names":[],"feature_types":[],"gradient_booster":{"model":{"gbtree_model_param":{"num_parallel_tree":"1","num_trees":"40"},"iteration_indptr":[0,4,8,12,16,20,24,28,32,36,40],"tree_info":[0,1,2,3,0,1,2,3,0,1,2,3,0,1,2,3,0,1,2,3,0,1,2,3,0,1,2,3,0,1,2,3,0,1,2,3,0,1,2,3],"trees":[{"base_weights":[1.9366843E0,1.9429891E0,1.8096269E0,1.9439831E0,1.8517964E0,1.827437E0,1.7105263E0,1.9399289E0,1.9808292E0,1.8649622E0,1.7435709E0,1.8355943E0,1.7319977E0,1.7429663E0,5.061068E-1,1.9399625E0,1.7704847E0,1.9938353E0,1.9345055E0,1.8695043E0,1.6904044E0,5.127909E-1,1.7842152E0,1.8377852E0,1.7265027E0,5.277435E-1,1.6846884E0,1.7522705E0,4.960423E-1,1.9399782E0,1.7788337E0,4.9127975E-1,1.8480479E0,1.9955221E0,1.9120369E0,1.9385756E0,1.818599E0,1.7863411E0,1.8763503E0,5.087438E-1,1.1E0,1.7856085E0,7.5E-1,1.8597655E0,1.8282913E0,1.6193472E0,1.7416632E0,1.0588236E0,1.6856267E0,1.6213425E0,1.7563704E0,5.819599E-1,5.9053516E-1,4.9617305E-1,5.700268E-1,5.6158537E-1,4.5198238E-1,5.9953266E-1,5.965731E-1,5.737262E-1,3.529412E-2,5.819717E-1,5.494737E-1,5.5069464E-1,4.9381736E-1,5.459742E-1,5.1684636E-1,5.688398E-1,5.574897E-1,4.3636367E-1,1.6363637E-1,5.0446707E-1,5.4157263E-1,3.176471E-1,7.826087E-2,5.6363374E-1,5.490424E-1,5.446445E-1,5.5344754E-1,2.425532E-1,4.888179E-1,1.826087E-1,5.2271235E-1,3.9574468E-1,1.0344828E-1,5.279065E-1,5.0189924E-1,4.889568E-1,2.4878049E-1,5.309972E-1,5.1638883E-1],"categories":[],"categories_nodes":[],"categories_segments":[],"categories_sizes":[],"default_left":[0,0,0,0,0,0,0,0,0,0,0,0,0,0,0,0,0,0,0,0,0,0,0,0,0,0,0,0,0,0,0,0,0,0,0,0,0,0,0,0,0,0,0,0,0,0,0,0,0,0,0,0,0,0,0,0,0,0,0,0,0,0,0,0,0,0,0,0,0,0,0,0,0,0,0,0,0,0,0,0,0,0,0,0,0,0,0,0,0,0,0],"id":0,"left_children":[1,3,5,7,9,11,13,15,17,19,21,23,25,27,-1,29,31,33,35,37,39,-1,41,43,45,-1,47,49,-1,51,53,-1,55,57,59,61,63,65,67,-1,69,71,73,75,77,79,81,83,85,87,89,-1,-1,-1,-1,-1,-1,-1,-1,-1,-1,-1,-1,-1,-1,-1,-1,-1,-1,-1,-1,-1,-1,-1,-1,-1,-1,-1,-1,-1,-1,-1,-1,-1,-1,-1,-1,-1,-1,-1,-1],"loss_changes":[2.679E3,2.84E2,2.7621875E2,4.69E2,4.5789062E1,1.013125E2,1.546875E1,1.2E1,1.845E2,2.1148438E1,2.1689453E0,2.634375E1,1.0625E1,5.5195312E0,0E0,5E0,2.9014893E0,2.98125E1,2.88125E1,1.365625E1,6.5112305E-1,0E0,1.0986328E0,2.190625E1,1.159668E0,0E0,4.951172E-1,2.0585938E0,0E0,5E0,1.2407227E0,0E0,8.0078125E-2,1E0,3.1875E0,5.890625E0,3.8706055E0,1.7558594E0,6.328125E0,0E0,1.1727276E0,4.1357422E-1,3.2800508E-1,1.7101562E1,1.45625E1,1.2719116E0,6.582031E-1,1.1250267E0,6.7871094E-1,6.0736084E-1,1.1796875E0,0E0,0E0,0E0,0E0,0E0,0E0,0E0,0E0,0E0,0E0,0E0,0E0,0E0,0E0,0E0,0E0,0E0,0E0,0E0,0E0,0E0,0E0,0E0,0E0,0E0,0E0,0E0,0E0,0E0,0E0,0E0,0E0,0E0,0E0,0E0,0E0,0E0,0E0,0E0,0E0],"parents":[2147483647,0,0,1,1,2,2,3,3,4,4,5,5,6,6,7,7,8,8,9,9,10,10,11,11,12,12,13,13,15,15,16,16,17,17,18,18,19,19,20,20,22,22,23,23,24,24,26,26,27,27,29,29,30,30,32,32,33,33,34,34,35,35,36,36,37,37,38,38,40,40,41,41,42,42,43,43,44,44,45,45,46,46,47,47,48,48,49,49,50,50],"right_children":[2,4,6,8,10,12,14,16,18,20,22,24,26,28,-1,30,32,34,36,38,40,-1,42,44,46,-1,48,50,-1,52,54,-1,56,58,60,62,64,66,68,-1,70,72,74,76,78,80,82,84,86,88,90,-1,-1,-1,-1,-1,-1,-1,-1,-1,-1,-1,-1,-1,-1,-1,-1,-1,-1,-1,-1,-1,-1,-1,-1,-1,-1,-1,-1,-1,-1,-1,-1,-1,-1,-1,-1,-1,-1,-1,-1],"split_conditions":[3.59E2,3.51E2,4.99E2,4.8E1,4.31E2,4.99E2,5.23E2,3.38E2,2.37E2,4.82E2,3.27E2,5.03E2,5.3E2,5.38E2,5.061068E-1,3.1E2,3.25E2,2.69E2,3.59E2,3.1E2,3.96E2,5.127909E-1,5.94E2,3.92E2,3.7E2,5.277435E-1,3E2,3.52E2,4.960423E-1,4.8E1,3.12E2,4.9127975E-1,4.25E2,1.58E2,4.23E2,3.64E2,4.05E2,3.87E2,3.8E2,5.087438E-1,3.23E2,4.23E2,4.79E2,3.87E2,4.35E2,3.7E2,4.05E2,2.93E2,4.87E2,3.51E2,5.07E2,5.819599E-1,5.9053516E-1,4.9617305E-1,5.700268E-1,5.6158537E-1,4.5198238E-1,5.9953266E-1,5.965731E-1,5.737262E-1,3.529412E-2,5.819717E-1,5.494737E-1,5.5069464E-1,4.9381736E-1,5.459742E-1,5.1684636E-1,5.688398E-1,5.574897E-1,4.3636367E-1,1.6363637E-1,5.0446707E-1,5.4157263E-1,3.176471E-1,7.826087E-2,5.6363374E-1,5.490424E-1,5.446445E-1,5.5344754E-1,2.425532E-1,4.888179E-1,1.826087E-1,5.2271235E-1,3.9574468E-1,1.0344828E-1,5.279065E-1,5.0189924E-1,4.889568E-1,2.4878049E-1,5.309972E-1,5.1638883E-1],"split_indices":[3,0,3,0,1,0,3,2,0,0,3,2,0,2,0,1,3,3,1,1,2,0,2,3,0,0,2,1,0,2,2,0,2,0,1,2,1,0,0,0,3,0,0,0,1,3,1,2,1,1,0,0,0,0,0,0,0,0,0,0,0,0,0,0,0,0,0,0,0,0,0,0,0,0,0,0,0,0,0,0,0,0,0,0,0,0,0,0,0,0,0],"split_type":[0,0,0,0,0,0,0,0,0,0,0,0,0,0,0,0,0,0,0,0,0,0,0,0,0,0,0,0,0,0,0,0,0,0,0,0,0,0,0,0,0,0,0,0,0,0,0,0,0,0,0,0,0,0,0,0,0,0,0,0,0,0,0,0,0,0,0,0,0,0,0,0,0,0,0,0,0,0,0,0,0,0,0,0,0,0,0,0,0,0,0],"sum_hessian":[3.348E6,3.1897065E6,1.582935E5,3.1552955E6,3.4411125E4,1.341645E5,2.4129E4,2.8425805E6,3.1271475E5,3.06645E4,3.746625E3,1.235835E5,1.0581E4,1.0106625E4,1.4022375E4,2.8420065E6,5.74125E2,2.4412988E5,6.8584875E4,2.9877375E4,7.87125E2,2.056125E3,1.6905E3,1.2113475E5,2.44875E3,6.700125E3,3.880875E3,9.138E3,9.68625E2,2.841718E6,2.88375E2,2.1975E2,3.54375E2,2.3917425E5,4.955625E3,6.6243E4,2.341875E3,2.292375E3,2.7585E4,7.78125E2,9E0,1.6875E3,3E0,3.648075E4,8.4654E4,3.16875E2,2.131875E3,7.5E0,3.873375E3,2.895E2,8.8485E3,2.830657E6,1.1061E4,1.4925E2,1.39125E2,3.27E2,2.7375E1,1.6817888E5,7.0995375E4,4.9545E3,1.125E0,6.541275E4,8.3025E2,2.1225E3,2.19375E2,1.481625E3,8.1075E2,1.3111875E4,1.4473125E4,4.5E0,4.5E0,2.81625E2,1.405875E3,1.125E0,1.875E0,2.2181625E4,1.4299125E4,4.7761125E4,3.6892875E4,4.875E0,3.12E2,1.875E0,2.13E3,4.875E0,2.625E0,5.44125E2,3.32925E3,2.85375E2,4.125E0,6.337875E3,2.510625E3],"tree_param":{"num_deleted":"0","num_feature":"4","num_nodes":"91","size_leaf_vector":"1"}},{"base_weights":[-6.620539E-1,-6.622387E-1,-6.4396006E-1,-6.622952E-1,-1.9476835E-1,-6.098868E-1,-6.4480585E-1,-1.9856934E-1,-6.647844E-1,-1.853342E-1,-5.1428574E-1,-1.9545048E-1,-1.9201133E-1,-1.9979468E-1,-1.980227E-1,6.896552E-2,-5.3803337E-1,-1.0588236E-1,1.20000005E-1,-1.5384616E-1,-1.6468331E-1,-1.0588236E-1,3.529412E-2],"categories":[],"categories_nodes":[],"categories_segments":[],"categories_sizes":[],"default_left":[0,0,0,0,0,0,0,0,0,0,0,0,0,0,0,0,0,0,0,0,0,0,0],"id":1,"left_children":[1,3,5,7,-1,9,11,-1,13,-1,15,-1,-1,-1,-1,17,19,-1,-1,21,-1,-1,-1],"loss_changes":[1.075E1,2.125E0,5.830078E-1,2.875E0,0E0,3.1582642E-1,6.386719E-1,0E0,2.125E0,0E0,1.0066643E0,0E0,0E0,0E0,0E0,6.474645E-1,1.9797325E-1,0E0,0E0,2.1719459E-1,0E0,0E0,0E0],"parents":[2147483647,0,0,1,1,2,2,3,3,5,5,6,6,8,8,10,10,15,15,16,16,19,19],"right_children":[2,4,6,8,-1,10,12,-1,14,-1,16,-1,-1,-1,-1,18,20,-1,-1,22,-1,-1,-1],"split_conditions":[4.84E2,4.87E2,4.8E1,4.8E1,-1.9476835E-1,7.03E2,4.79E2,-1.9856934E-1,3.77E2,-1.853342E-1,5.94E2,-1.9545048E-1,-1.9201133E-1,-1.9979468E-1,-1.980227E-1,5.07E2,5.07E2,-1.0588236E-1,1.20000005E-1,4.96E2,-1.6468331E-1,-1.0588236E-1,3.529412E-2],"split_indices":[3,0,0,3,0,1,0,0,3,0,2,0,0,0,0,3,3,0,0,3,0,0,0],"split_type":[0,0,0,0,0,0,0,0,0,0,0,0,0,0,0,0,0,0,0,0,0,0,0],"sum_hessian":[3.348E6,3.314105E6,3.3895125E4,3.299732E6,1.4373E4,8.385E2,3.3056625E4,2.8456762E6,4.5405562E5,7.695E2,6.9E1,1.369275E4,1.9363875E4,3.6186075E5,9.2194875E4,2.625E0,6.6375E1,1.125E0,1.5E0,2.25E0,6.4125E1,1.125E0,1.125E0],"tree_param":{"num_deleted":"0","num_feature":"4","num_nodes":"23","size_leaf_vector":"1"}},{"base_weights":[-6.162501E-1,-6.2191504E-1,-5.1618516E-1,-6.2256414E-1,-5.350879E-1,-5.256748E-1,-4.4761753E-1,-6.1945724E-1,-6.516703E-1,-5.491419E-1,-4.338744E-1,-5.468256E-1,-5.1322055E-1,-4.5639667E-1,-3.5146216E-1,-6.1948365E-1,-3.9824304E-1,-6.6149056E-1,-6.1163944E-1,-5.560625E-1,-4.1714078E-1,-4.419126E-1,-3.2208785E-1,-5.59043E-1,-5.0966287E-1,-5.16526E-1,-4.294568E-1,-4.1632155E-1,-4.6945125E-1,-5.511811E-1,-3.4774148E-1,-6.1955893E-1,-5.799603E-1,-2.0069204E-1,-4.495837E-1,-6.628048E-1,-5.895716E-1,-6.1375046E-1,-4.2683375E-1,-4.872648E-1,-5.641296E-1,-4.6562603E-1,-3.8874096E-1,-4.1088557E-1,-4.639589E-1,-3.394256E-1,2.9787233E-1,-5.624125E-1,-4.6442997E-1,-5.160373E-1,-4.0526003E-1,-5.1956075E-1,-4.4554296E-1,-3.8033286E-1,-4.6096817E-1,-4.3138266E-1,-3.601386E-1,-3.6054972E-1,-4.7170115E-1,-2.0689656E-1,-5.751073E-1,-2.3686054E-1,-3.5972553E-1,-1.8582529E-1,-1.9657129E-1,-1.742222E-1,-3.0000001E-2,-7.7200904E-2,-4.1958042E-3,-1.4892508E-1,-9.92126E-2,-1.9953108E-1,-1.9666912E-1,-1.7729652E-1,-0E0,-1.850141E-1,-1.7264998E-1,-1.3846155E-1,-9.1821864E-2,-1.5508904E-1,-1.2977672E-1,-1.7082924E-1,-1.5782896E-1,-1.0978136E-1,-1.5125582E-1,-1.3788821E-1,-9.591078E-2,-1.3411064E-1,-1.1422213E-1,-1.2791495E-1,-1.4806998E-1,-1.3138686E-2,-1.09907344E-1,1.5789475E-1,-1.0588236E-1,-1.5488201E-1,-1.7096555E-1,-8.16286E-2,-1.4444844E-1,-1.415585E-1,-1.5802447E-1,-1.23553656E-1,-2.8187921E-2,-1.3653842E-1,-1.5681307E-1,-1.2623954E-1,-1.396471E-1,-1.3846155E-1,-1.0901323E-1,-1.4154808E-1,-1.1883626E-1,-1.04875155E-1,-1.3322638E-1,-3.7974685E-2,-1.0928337E-1,-1.3065188E-1,-7.615385E-2,-1.4594018E-1,-1.387672E-1,-1.20000005E-1,3.529412E-2,-9.4736844E-2,-1.8029557E-1,-7.581227E-2,7.2000004E-2,-1.3141327E-1,-1.0478844E-1],"categories":[],"categories_nodes":[],"categories_segments":[],"categories_sizes":[],"default_left":[0,0,0,0,0,0,0,0,0,0,0,0,0,0,0,0,0,0,0,0,0,0,0,0,0,0,0,0,0,0,0,0,0,0,0,0,0,0,0,0,0,0,0,0,0,0,0,0,0,0,0,0,0,0,0,0,0,0,0,0,0,0,0,0,0,0,0,0,0,0,0,0,0,0,0,0,0,0,0,0,0,0,0,0,0,0,0,0,0,0,0,0,0,0,0,0,0,0,0,0,0,0,0,0,0,0,0,0,0,0,0,0,0,0,0,0,0,0,0,0,0,0,0,0,0,0,0],"id":2,"left_children":[1,3,5,7,9,11,13,15,17,19,21,23,25,27,29,31,33,35,37,39,41,43,45,47,49,51,53,55,57,59,61,63,65,67,69,71,73,75,77,79,81,83,85,87,89,91,93,95,97,99,101,103,105,107,109,111,113,115,117,119,121,123,125,-1,-1,-1,-1,-1,-1,-1,-1,-1,-1,-1,-1,-1,-1,-1,-1,-1,-1,-1,-1,-1,-1,-1,-1,-1,-1,-1,-1,-1,-1,-1,-1,-1,-1,-1,-1,-1,-1,-1,-1,-1,-1,-1,-1,-1,-1,-1,-1,-1,-1,-1,-1,-1,-1,-1,-1,-1,-1,-1,-1,-1,-1,-1,-1],"loss_changes":[1.8975E3,1.7825E2,1.1648828E2,2.84E2,3.3216797E1,4.1226562E1,1.8255371E1,1.6375E1,1.18828125E2,1.8631348E1,2.4387207E0,2.6222656E1,2.724414E1,1.026123E1,1.1678162E0,8.25E0,3.3734016E0,2.2632812E1,2.3050781E1,1.0612305E1,1.2408905E0,1.6405029E0,2.2118835E0,1.3744141E1,9.411377E0,2.0324219E1,5.663025E0,4.0078125E0,3.5219727E0,1.4255047E-1,2.3049774E0,1.375E1,1.970459E0,7.605047E-1,1.3403969E0,3.5390625E0,3.6585693E0,6.34375E0,2.7012634E0,3.1313477E0,3.2387695E0,1.2622757E0,3.0695496E0,1.0511322E0,1.5220642E0,1.5086708E0,1.0592188E0,1.4329102E1,4.845978E0,6.196045E0,1.676178E0,1.8330078E1,1.7386475E0,1.8695374E0,1.4277649E0,3.871643E0,9.652405E-1,2.3628693E0,1.7678223E0,2.7423936E-1,5.6619644E-3,1.408598E0,1.171524E0,0E0,0E0,0E0,0E0,0E0,0E0,0E0,0E0,0E0,0E0,0E0,0E0,0E0,0E0,0E0,0E0,0E0,0E0,0E0,0E0,0E0,0E0,0E0,0E0,0E0,0E0,0E0,0E0,0E0,0E0,0E0,0E0,0E0,0E0,0E0,0E0,0E0,0E0,0E0,0E0,0E0,0E0,0E0,0E0,0E0,0E0,0E0,0E0,0E0,0E0,0E0,0E0,0E0,0E0,0E0,0E0,0E0,0E0,0E0,0E0,0E0,0E0,0E0,0E0],"parents":[2147483647,0,0,1,1,2,2,3,3,4,4,5,5,6,6,7,7,8,8,9,9,10,10,11,11,12,12,13,13,14,14,15,15,16,16,17,17,18,18,19,19,20,20,21,21,22,22,23,23,24,24,25,25,26,26,27,27,28,28,29,29,30,30,31,31,32,32,33,33,34,34,35,35,36,36,37,37,38,38,39,39,40,40,41,41,42,42,43,43,44,44,45,45,46,46,47,47,48,48,49,49,50,50,51,51,52,52,53,53,54,54,55,55,56,56,57,57,58,58,59,59,60,60,61,61,62,62],"right_children":[2,4,6,8,10,12,14,16,18,20,22,24,26,28,30,32,34,36,38,40,42,44,46,48,50,52,54,56,58,60,62,64,66,68,70,72,74,76,78,80,82,84,86,88,90,92,94,96,98,100,102,104,106,108,110,112,114,116,118,120,122,124,126,-1,-1,-1,-1,-1,-1,-1,-1,-1,-1,-1,-1,-1,-1,-1,-1,-1,-1,-1,-1,-1,-1,-1,-1,-1,-1,-1,-1,-1,-1,-1,-1,-1,-1,-1,-1,-1,-1,-1,-1,-1,-1,-1,-1,-1,-1,-1,-1,-1,-1,-1,-1,-1,-1,-1,-1,-1,-1,-1,-1,-1,-1,-1,-1],"split_conditions":[3.4E2,3.51E2,5.03E2,4.8E1,4.25E2,3.92E2,7.03E2,3.38E2,2.37E2,4.61E2,7.02E2,3.98E2,5.12E2,4.7E2,5.38E2,1.97E2,2.85E2,2.69E2,3.73E2,3.1E2,4.82E2,3.71E2,3.38E2,3.98E2,5.07E2,5.17E2,4.72E2,5.94E2,4.45E2,3.58E2,4.61E2,4.8E1,4.29E2,2.72E2,3.59E2,1.67E2,3.51E2,3.36E2,4.07E2,3.85E2,3.98E2,4.8E1,3.05E2,4.5E2,4.48E2,4.9E2,7.03E2,3.26E2,3.36E2,3.98E2,4.93E2,3.26E2,4.7E2,1.39E2,5.49E2,4.67E2,5.08E2,5.94E2,5.23E2,3.49E2,5.08E2,4.58E2,5.64E2,-1.8582529E-1,-1.9657129E-1,-1.742222E-1,-3.0000001E-2,-7.7200904E-2,-4.1958042E-3,-1.4892508E-1,-9.92126E-2,-1.9953108E-1,-1.9666912E-1,-1.7729652E-1,-0E0,-1.850141E-1,-1.7264998E-1,-1.3846155E-1,-9.1821864E-2,-1.5508904E-1,-1.2977672E-1,-1.7082924E-1,-1.5782896E-1,-1.0978136E-1,-1.5125582E-1,-1.3788821E-1,-9.591078E-2,-1.3411064E-1,-1.1422213E-1,-1.2791495E-1,-1.4806998E-1,-1.3138686E-2,-1.09907344E-1,1.5789475E-1,-1.0588236E-1,-1.5488201E-1,-1.7096555E-1,-8.16286E-2,-1.4444844E-1,-1.415585E-1,-1.5802447E-1,-1.23553656E-1,-2.8187921E-2,-1.3653842E-1,-1.5681307E-1,-1.2623954E-1,-1.396471E-1,-1.3846155E-1,-1.0901323E-1,-1.4154808E-1,-1.1883626E-1,-1.04875155E-1,-1.3322638E-1,-3.7974685E-2,-1.0928337E-1,-1.3065188E-1,-7.615385E-2,-1.4594018E-1,-1.387672E-1,-1.20000005E-1,3.529412E-2,-9.4736844E-2,-1.8029557E-1,-7.581227E-2,7.2000004E-2,-1.3141327E-1,-1.0478844E-1],"split_indices":[3,0,2,0,1,3,1,2,0,0,0,1,3,0,2,3,3,3,1,1,0,2,3,2,0,0,2,3,3,3,3,3,1,3,1,0,1,2,1,0,1,3,1,1,0,1,1,2,1,0,2,1,2,1,3,3,2,1,2,3,2,3,0,0,0,0,0,0,0,0,0,0,0,0,0,0,0,0,0,0,0,0,0,0,0,0,0,0,0,0,0,0,0,0,0,0,0,0,0,0,0,0,0,0,0,0,0,0,0,0,0,0,0,0,0,0,0,0,0,0,0,0,0,0,0,0,0],"split_type":[0,0,0,0,0,0,0,0,0,0,0,0,0,0,0,0,0,0,0,0,0,0,0,0,0,0,0,0,0,0,0,0,0,0,0,0,0,0,0,0,0,0,0,0,0,0,0,0,0,0,0,0,0,0,0,0,0,0,0,0,0,0,0,0,0,0,0,0,0,0,0,0,0,0,0,0,0,0,0,0,0,0,0,0,0,0,0,0,0,0,0,0,0,0,0,0,0,0,0,0,0,0,0,0,0,0,0,0,0,0,0,0,0,0,0,0,0,0,0,0,0,0,0,0,0,0,0],"sum_hessian":[3.348E6,3.1686125E6,1.7938762E5,3.145094E6,2.35185E4,1.5757312E5,2.18145E4,2.8417775E6,3.033165E5,2.0647125E4,2.871375E3,5.8381875E4,9.919125E4,1.9986E4,1.8285E3,2.841437E6,3.405E2,2.4355312E5,5.9763375E4,1.96155E4,1.031625E3,2.676E3,1.95375E2,4.392675E4,1.4455125E4,9.5420625E4,3.770625E3,4.918875E3,1.5067125E4,3.075E1,1.79775E3,2.836021E6,5.41575E3,7.125E1,2.6925E2,2.3917425E5,4.378875E3,5.9086125E4,6.7725E2,2.065125E3,1.7550375E4,3.75375E2,6.5625E2,1.11975E3,1.55625E3,1.905E2,4.875E0,4.2411375E4,1.515375E3,1.3619625E4,8.355E2,9.150225E4,3.918375E3,1.478625E3,2.292E3,3.87375E3,1.045125E3,3.0825E2,1.4758875E4,2.625E0,2.8125E1,1.77375E2,1.620375E3,2.8248518E6,1.1169375E4,5.40675E3,9E0,5.4375E1,1.6875E1,1.90875E2,7.8375E1,1.81473E5,5.770125E4,4.368375E3,1.05E1,5.4823875E4,4.26225E3,5.23875E2,1.53375E2,1.33275E3,7.32375E2,1.5391125E4,2.15925E3,1.07625E2,2.6775E2,3.21E2,3.3525E2,5.02875E2,6.16875E2,6.92625E2,8.63625E2,1.6125E1,1.74375E2,3.75E0,1.125E0,5.92125E3,3.6490125E4,1.24875E2,1.3905E3,2.666625E3,1.0953E4,8.17875E2,1.7625E1,4.270875E3,8.7231375E4,1.75875E3,2.159625E3,2.50875E2,1.22775E3,1.957875E3,3.34125E2,5.24625E2,3.349125E3,1.875E1,1.026375E3,1.7925E2,1.29E2,5.62425E3,9.134625E3,1.5E0,1.125E0,3.75E0,2.4375E1,1.72125E2,5.25E0,1.85625E2,1.43475E3],"tree_param":{"num_deleted":"0","num_feature":"4","num_nodes":"127","size_leaf_vector":"1"}},{"base_weights":[-6.583803E-1,-6.590943E-1,-6.371442E-1,-6.585176E-1,-6.632461E-1,-6.427452E-1,-6.1358196E-1,-1.9757019E-1,-1.9208317E-1,-6.6492856E-1,-6.529702E-1,-1.9353852E-1,-6.280566E-1,-6.0982615E-1,-1.9778237E-1,-1.9973038E-1,-6.580511E-1,-1.915906E-1,-6.538741E-1,-6.2556374E-1,-1.963466E-1,-6.222288E-1,-5.901809E-1,-1.9742334E-1,-0E0,-1.9729577E-1,-6.5043586E-1,-6.284736E-1,-6.0082644E-1,-6.2557685E-1,-6.063994E-1,-5.840842E-1,-6.200318E-1,-2.6086958E-2,-1.9514138E-1,-1.9178663E-1,-1.8742031E-1,3.529412E-2,-1.8047771E-1,-1.8850262E-1,-1.833085E-1,-1.8817419E-1,-1.7914693E-1,-1.784874E-1,-1.7206983E-1,-4.615385E-2,-1.8622339E-1],"categories":[],"categories_nodes":[],"categories_segments":[],"categories_sizes":[],"default_left":[0,0,0,0,0,0,0,0,0,0,0,0,0,0,0,0,0,0,0,0,0,0,0,0,0,0,0,0,0,0,0,0,0,0,0,0,0,0,0,0,0,0,0,0,0,0,0],"id":3,"left_children":[1,3,5,7,9,11,13,-1,-1,15,17,-1,19,21,-1,-1,23,-1,25,27,-1,29,31,-1,-1,-1,33,35,37,39,41,43,45,-1,-1,-1,-1,-1,-1,-1,-1,-1,-1,-1,-1,-1,-1],"loss_changes":[5.0375E1,7.375E0,1.39765625E1,2.125E0,6.390625E0,2.6757812E0,3.1914062E0,0E0,0E0,1.53125E0,3.046875E-1,0E0,4.0185547E-1,4.351074E0,0E0,0E0,6.4941406E-1,0E0,2.5E-1,4.345703E-1,0E0,2.4853516E-1,1.005127E0,0E0,0E0,0E0,4.892578E-1,7.8125E-3,7.366638E-1,8.544922E-3,3.0456543E-2,3.7426758E-1,3.2254028E-1,0E0,0E0,0E0,0E0,0E0,0E0,0E0,0E0,0E0,0E0,0E0,0E0,0E0,0E0],"parents":[2147483647,0,0,1,1,2,2,3,3,4,4,5,5,6,6,9,9,10,10,12,12,13,13,16,16,18,18,19,19,21,21,22,22,26,26,27,27,28,28,29,29,30,30,31,31,32,32],"right_children":[2,4,6,8,10,12,14,-1,-1,16,18,-1,20,22,-1,-1,24,-1,26,28,-1,30,32,-1,-1,-1,34,36,38,40,42,44,46,-1,-1,-1,-1,-1,-1,-1,-1,-1,-1,-1,-1,-1,-1],"split_conditions":[4.03E2,4.8E1,4.99E2,1.79E2,3.66E2,4.99E2,7.02E2,-1.9757019E-1,-1.9208317E-1,3.3E2,4.8E1,-1.9353852E-1,5.94E2,5.23E2,-1.9778237E-1,-1.9973038E-1,5.94E2,-1.915906E-1,3.63E2,5.12E2,-1.963466E-1,5.12E2,5.94E2,-1.9742334E-1,-0E0,-1.9729577E-1,1.46E2,4.03E2,4.7E2,5.3E2,5.12E2,5.38E2,4.05E2,-2.6086958E-2,-1.9514138E-1,-1.9178663E-1,-1.8742031E-1,3.529412E-2,-1.8047771E-1,-1.8850262E-1,-1.833085E-1,-1.8817419E-1,-1.7914693E-1,-1.784874E-1,-1.7206983E-1,-4.615385E-2,-1.8622339E-1],"split_indices":[0,3,3,0,3,0,2,0,0,0,0,0,1,1,0,0,1,0,0,2,0,0,2,0,0,0,2,3,1,2,3,0,0,0,0,0,0,0,0,0,0,0,0,0,0,0,0],"split_type":[0,0,0,0,0,0,0,0,0,0,0,0,0,0,0,0,0,0,0,0,0,0,0,0,0,0,0,0,0,0,0,0,0,0,0,0,0,0,0,0,0,0,0,0,0,0,0],"sum_hessian":[3.348E6,3.2390782E6,1.0892175E5,2.844214E6,3.9486412E5,8.7981375E4,2.0940375E4,2.8364595E6,7.754625E3,3.3925462E5,5.56095E4,7.5662625E4,1.231875E4,1.9363125E4,1.57725E3,3.0226838E5,3.698625E4,3.3405E3,5.2269E4,1.1279625E4,1.039125E3,1.185075E4,7.512375E3,3.698475E4,1.5E0,2.4811875E4,2.7457125E4,1.0070625E4,1.209E3,9.75E3,2.10075E3,6.255375E3,1.257E3,1.875E0,2.745525E4,2.543625E3,7.527E3,1.125E0,1.207875E3,8.157375E3,1.592625E3,6.2475E2,1.476E3,3.048375E3,3.207E3,2.25E0,1.25475E3],"tree_param":{"num_deleted":"0","num_feature":"4","num_nodes":"47","size_leaf_vector":"1"}},{"base_weights":[1.1426073E0,1.1458443E0,1.0821937E0,1.1440609E0,1.1612036E0,1.0906268E0,1.0300945E0,1.1442223E0,1.0953331E0,1.167341E0,1.1147335E0,1.0945414E0,1.0404825E0,1.0447421E0,1.0150623E0,1.144115E0,3.5070845E-1,1.108235E0,1.0326697E0,1.171282E0,1.1424485E0,1.121689E0,1.059048E0,1.1065079E0,1.0876726E0,1.0618963E0,1.023265E0,1.0487878E0,9.8401964E-1,9.8637325E-1,1.0191712E0,3.4323457E-1,1.0297334E-1,1.1124434E0,1.0287247E0,1.0503078E0,9.978998E-1,1.171464E0,1.0219945E0,1.1449132E0,1.0625786E0,1.09969E0,1.1295788E0,1.0727365E0,1.0208118E0,1.1137112E0,1.0849307E0,1.0317712E0,1.0892581E0,1.0270097E0,1.0714898E0,1.0274836E0,9.817983E-1,3.02675E-1,1.0545467E0,3.5594925E-1,9.771613E-1,3.0361864E-1,9.615727E-1,1.0937399E0,1.0172619E0,3.341598E-1,2.9422033E-1,2.8688222E-1,3.1913662E-1,3.059389E-1,3.2571924E-1,2.309258E-1,3.0180532E-1,3.5158956E-1,3.429395E-1,2.4563344E-1,3.1156254E-1,3.3115962E-1,3.4489352E-1,2.8056976E-1,3.2186455E-1,3.3172423E-1,3.0994225E-1,3.4184754E-1,3.333422E-1,3.006545E-1,3.247446E-1,2.876575E-1,3.1222785E-1,3.2143855E-1,3.358659E-1,2.927729E-1,3.2630336E-1,3.1055614E-1,2.717667E-1,3.2718652E-1,3.109399E-1,3.2062706E-1,2.985685E-1,3.215392E-1,1.2478303E-1,3.0366033E-1,3.1204692E-1,2.765537E-1,3.1038913E-1,3.190555E-1,3.1052184E-1,-2.2687944E-2,2.93643E-1,2.0436148E-1,2.9085043E-1,2.848285E-1,3.3899543E-1,3.0730867E-1,3.0129552E-1],"categories":[],"categories_nodes":[],"categories_segments":[],"categories_sizes":[],"default_left":[0,0,0,0,0,0,0,0,0,0,0,0,0,0,0,0,0,0,0,0,0,0,0,0,0,0,0,0,0,0,0,0,0,0,0,0,0,0,0,0,0,0,0,0,0,0,0,0,0,0,0,0,0,0,0,0,0,0,0,0,0,0,0,0,0,0,0,0,0,0,0,0,0,0,0,0,0,0,0,0,0,0,0,0,0,0,0,0,0,0,0,0,0,0,0,0,0,0,0,0,0,0,0,0,0,0,0,0,0,0,0],"id":4,"left_children":[1,3,5,7,9,11,13,15,17,19,21,23,25,27,29,31,-1,33,35,37,39,41,43,45,47,49,51,53,55,57,59,-1,-1,61,63,65,67,69,71,73,75,77,79,81,83,85,87,89,91,93,95,97,99,-1,101,-1,103,-1,105,107,109,-1,-1,-1,-1,-1,-1,-1,-1,-1,-1,-1,-1,-1,-1,-1,-1,-1,-1,-1,-1,-1,-1,-1,-1,-1,-1,-1,-1,-1,-1,-1,-1,-1,-1,-1,-1,-1,-1,-1,-1,-1,-1,-1,-1,-1,-1,-1,-1,-1,-1],"loss_changes":[8.495E2,1.11E2,9.6078125E1,2.85E1,1.211875E2,3.621875E1,5.7285156E0,8E0,8.744141E0,3.5875E1,1.8214844E1,1.3296875E1,4.0029297E0,2.796875E0,7.9296875E-1,1E0,0E0,2.2451172E0,2.4194336E-1,7.6875E0,8.9921875E0,6.4882812E0,1.8266602E0,8.7890625E0,8.828125E0,9.4970703E-1,3.3496094E-1,2.2861328E0,2.1447754E-1,2.640381E-1,7.8222656E-1,0E0,0E0,7.0703125E-1,3.1018066E-1,3.8024902E-1,5.7373047E-1,3.3125E0,5.161438E-1,8.5078125E0,1.0526123E0,3.6113281E0,4.71875E0,1.7280273E0,8.4606934E-1,1.06953125E1,3.7695312E0,4.008789E-1,6.71875E0,7.211914E-1,5.175781E-1,2.9248047E-1,1.3633423E0,0E0,1.1230469E0,0E0,1.744873E0,0E0,1.5801392E0,5.957031E-1,1.6601562E-1,0E0,0E0,0E0,0E0,0E0,0E0,0E0,0E0,0E0,0E0,0E0,0E0,0E0,0E0,0E0,0E0,0E0,0E0,0E0,0E0,0E0,0E0,0E0,0E0,0E0,0E0,0E0,0E0,0E0,0E0,0E0,0E0,0E0,0E0,0E0,0E0,0E0,0E0,0E0,0E0,0E0,0E0,0E0,0E0,0E0,0E0,0E0,0E0,0E0,0E0],"parents":[2147483647,0,0,1,1,2,2,3,3,4,4,5,5,6,6,7,7,8,8,9,9,10,10,11,11,12,12,13,13,14,14,15,15,17,17,18,18,19,19,20,20,21,21,22,22,23,23,24,24,25,25,26,26,27,27,28,28,29,29,30,30,33,33,34,34,35,35,36,36,37,37,38,38,39,39,40,40,41,41,42,42,43,43,44,44,45,45,46,46,47,47,48,48,49,49,50,50,51,51,52,52,54,54,56,56,58,58,59,59,60,60],"right_children":[2,4,6,8,10,12,14,16,18,20,22,24,26,28,30,32,-1,34,36,38,40,42,44,46,48,50,52,54,56,58,60,-1,-1,62,64,66,68,70,72,74,76,78,80,82,84,86,88,90,92,94,96,98,100,-1,102,-1,104,-1,106,108,110,-1,-1,-1,-1,-1,-1,-1,-1,-1,-1,-1,-1,-1,-1,-1,-1,-1,-1,-1,-1,-1,-1,-1,-1,-1,-1,-1,-1,-1,-1,-1,-1,-1,-1,-1,-1,-1,-1,-1,-1,-1,-1,-1,-1,-1,-1,-1,-1,-1,-1],"split_conditions":[3.47E2,4.8E1,4.99E2,2.03E2,3.21E2,4.99E2,5.3E2,4.8E1,4.27E2,2.55E2,4.03E2,3.92E2,5.17E2,5.49E2,3.75E2,7.03E2,3.5070845E-1,3.83E2,4.7E2,3.21E2,3.52E2,3.03E2,4.5E2,3.98E2,2.93E2,4.74E2,5.38E2,4.7E2,4.21E2,3.54E2,3.94E2,3.4323457E-1,1.0297334E-1,4.5E2,3.83E2,3.68E2,4.74E2,2.76E2,2.44E2,2.4E2,2.93E2,4.11E2,3.61E2,3.85E2,4.52E2,3.28E2,3.59E2,3.47E2,5.03E2,4.21E2,7.03E2,4.74E2,4.65E2,3.02675E-1,5.17E2,3.5594925E-1,4.27E2,3.0361864E-1,4.35E2,4.67E2,5.49E2,3.341598E-1,2.9422033E-1,2.8688222E-1,3.1913662E-1,3.059389E-1,3.2571924E-1,2.309258E-1,3.0180532E-1,3.5158956E-1,3.429395E-1,2.4563344E-1,3.1156254E-1,3.3115962E-1,3.4489352E-1,2.8056976E-1,3.2186455E-1,3.3172423E-1,3.0994225E-1,3.4184754E-1,3.333422E-1,3.006545E-1,3.247446E-1,2.876575E-1,3.1222785E-1,3.2143855E-1,3.358659E-1,2.927729E-1,3.2630336E-1,3.1055614E-1,2.717667E-1,3.2718652E-1,3.109399E-1,3.2062706E-1,2.985685E-1,3.215392E-1,1.2478303E-1,3.0366033E-1,3.1204692E-1,2.765537E-1,3.1038913E-1,3.190555E-1,3.1052184E-1,-2.2687944E-2,2.93643E-1,2.0436148E-1,2.9085043E-1,2.848285E-1,3.3899543E-1,3.0730867E-1,3.0129552E-1],"split_indices":[3,3,3,0,0,0,3,0,0,3,1,3,0,2,0,1,0,2,1,1,2,2,1,1,1,1,2,2,1,1,0,0,0,1,1,1,1,0,2,2,3,0,1,0,0,2,2,0,1,3,1,2,3,0,2,0,1,0,2,2,0,0,0,0,0,0,0,0,0,0,0,0,0,0,0,0,0,0,0,0,0,0,0,0,0,0,0,0,0,0,0,0,0,0,0,0,0,0,0,0,0,0,0,0,0,0,0,0,0,0,0],"split_type":[0,0,0,0,0,0,0,0,0,0,0,0,0,0,0,0,0,0,0,0,0,0,0,0,0,0,0,0,0,0,0,0,0,0,0,0,0,0,0,0,0,0,0,0,0,0,0,0,0,0,0,0,0,0,0,0,0,0,0,0,0,0,0,0,0,0,0,0,0,0,0,0,0,0,0,0,0,0,0,0,0,0,0,0,0,0,0,0,0,0,0,0,0,0,0,0,0,0,0,0,0,0,0,0,0,0,0,0,0,0,0],"sum_hessian":[4.348677E6,4.1275105E6,2.2116644E5,3.6981648E6,4.293458E5,1.9033739E5,3.082904E4,3.6859332E6,1.2231409E4,3.7923594E5,5.0109887E4,1.7653508E5,1.3802322E4,1.557946E4,1.5249579E4,3.6701222E6,1.5811114E4,1.0129204E4,2.102205E3,3.2736062E5,5.1875316E4,4.452887E4,5.5810166E3,6.4320152E4,1.1221492E5,6.124501E3,7.677821E3,1.4591059E4,9.8840076E2,1.9406255E3,1.3308953E4,3.6701208E6,1.4261755E0,9.607671E3,5.2153326E2,1.3753243E3,7.268807E2,3.2695525E5,4.0535715E2,5.0309484E4,1.565833E3,1.1791522E4,3.2737348E4,4.0898167E3,1.4912E3,4.818391E4,1.6136242E4,3.1128696E3,1.09102055E5,1.3442455E3,4.7802554E3,6.9472764E3,7.305445E2,1.8637513E3,1.2727308E4,2.6747313E1,9.6165344E2,9.336859E2,1.0069396E3,3.1800806E2,1.2990945E4,9.497638E3,1.1003317E2,1.7930914E2,3.422241E2,7.548917E2,6.204326E2,2.8267698E1,6.98613E2,3.2123322E5,5.722061E3,3.4322765E1,3.7103436E2,5.2241807E3,4.50853E4,1.2407413E2,1.4417588E3,1.0793471E4,9.9805145E2,2.1251154E4,1.1486192E4,5.0895715E2,3.5808596E3,3.751442E2,1.1160558E3,5.8753735E3,4.2308535E4,4.053596E2,1.5730883E4,3.0235972E3,8.927264E1,1.0633586E5,2.7661973E3,5.6692554E2,7.7731995E2,4.7773804E3,2.8751776E0,3.186035E3,3.7612415E3,3.508532E2,3.7969128E2,8.676471E3,4.0508364E3,1.4334431E0,9.6022003E2,3.0083132E1,9.7685645E2,6.929601E1,2.4871207E2,8.338554E3,4.652391E3],"tree_param":{"num_deleted":"0","num_feature":"4","num_nodes":"111","size_leaf_vector":"1"}},{"base_weights":[-6.136061E-1,-6.1380005E-1,-5.9488326E-1,-6.133832E-1,-6.1633664E-1,-5.5691564E-1,-5.9583527E-1,-1.8401626E-1,-4.903795E-1,-1.85363E-1,-6.1076427E-1,-5.657409E-1,-4.5274034E-1,-1.8240815E-1,-5.9254664E-1,-1.552585E-1,-3.3987302E-1,-1.8357731E-1,-5.9769785E-1,-1.7809023E-1,-5.422211E-1,1.022672E-1,-4.784473E-1,-5.995223E-1,-1.7669311E-1,-4.8096787E-2,-1.0825437E-1,-1.8211313E-1,-1.771782E-1,-5.561522E-2,-1.6480292E-1,-9.532829E-2,1.1918547E-1,-1.1239943E-1,-4.9007902E-1,-1.8085863E-1,-1.754741E-1,-1.2828904E-1,7.280257E-2,-9.544069E-2,4.184132E-2,-1.7667171E-1,-1.3101894E-1],"categories":[],"categories_nodes":[],"categories_segments":[],"categories_sizes":[],"default_left":[0,0,0,0,0,0,0,0,0,0,0,0,0,0,0,0,0,0,0,0,0,0,0,0,0,0,0,0,0,0,0,0,0,0,0,0,0,0,0,0,0,0,0],"id":5,"left_children":[1,3,5,7,9,11,13,-1,15,-1,17,19,21,-1,23,-1,25,-1,27,-1,29,31,33,35,-1,-1,-1,-1,-1,37,-1,-1,-1,39,41,-1,-1,-1,-1,-1,-1,-1,-1],"loss_changes":[9.6875E0,2.4375E0,6.972656E-1,1.0625E0,2.953125E0,3.9860535E-1,7.5390625E-1,0E0,1.8502426E-1,0E0,9.1015625E-1,1.0620117E-1,9.1390705E-1,0E0,1.9238281E-1,0E0,3.9536953E-3,0E0,9.863281E-2,0E0,1.2363358E0,5.60895E-1,1.9236755E-1,6.3476562E-3,0E0,0E0,0E0,0E0,0E0,8.124029E-1,0E0,0E0,0E0,2.043623E-1,3.8217545E-2,0E0,0E0,0E0,0E0,0E0,0E0,0E0,0E0],"parents":[2147483647,0,0,1,1,2,2,3,3,4,4,5,5,6,6,8,8,10,10,11,11,12,12,14,14,16,16,18,18,20,20,21,21,22,22,23,23,29,29,33,33,34,34],"right_children":[2,4,6,8,10,12,14,-1,16,-1,18,20,22,-1,24,-1,26,-1,28,-1,30,32,34,36,-1,-1,-1,-1,-1,38,-1,-1,-1,40,42,-1,-1,-1,-1,-1,-1,-1,-1],"split_conditions":[4.84E2,4.8E1,4.8E1,7.02E2,3.8E2,7.03E2,4.41E2,-1.8401626E-1,5.65E2,-1.85363E-1,5.03E2,4.37E2,5.94E2,-1.8240815E-1,5.03E2,-1.552585E-1,7.02E2,-1.8357731E-1,4.31E2,-1.7809023E-1,4.41E2,5.07E2,5.07E2,5.17E2,-1.7669311E-1,-4.8096787E-2,-1.0825437E-1,-1.8211313E-1,-1.771782E-1,4.96E2,-1.6480292E-1,-9.532829E-2,1.1918547E-1,4.96E2,7.02E2,-1.8085863E-1,-1.754741E-1,-1.2828904E-1,7.280257E-2,-9.544069E-2,4.184132E-2,-1.7667171E-1,-1.3101894E-1],"split_indices":[3,3,0,0,0,1,0,0,2,0,0,2,2,0,3,0,2,0,3,0,2,3,3,0,0,0,0,0,0,3,0,0,0,3,3,0,0,0,0,0,0,0,0],"split_type":[0,0,0,0,0,0,0,0,0,0,0,0,0,0,0,0,0,0,0,0,0,0,0,0,0,0,0,0,0,0,0,0,0,0,0,0,0,0,0,0,0,0,0],"sum_hessian":[2.7752312E6,2.7467442E6,2.8487025E4,2.3592248E6,3.875197E5,7.111592E2,2.7775865E4,2.3591372E6,8.7328735E1,3.0352522E5,8.399447E4,6.515336E2,5.9625553E1,5.8615405E3,2.1914324E4,7.191745E1,1.5411289E1,7.7103266E4,6.8911978E3,2.869667E2,3.6456693E2,2.507653E0,5.71179E1,7.3615337E3,1.4552791E4,2.5161288E0,1.289516E1,2.9395085E3,3.9516895E3,5.385845E0,3.591811E2,1.0028151E0,1.5048379E0,2.0875156E0,5.5030388E1,5.958951E3,1.4025824E3,2.2037816E0,3.1820638E0,1.0041778E0,1.0833377E0,1.5773016E1,3.925737E1],"tree_param":{"num_deleted":"0","num_feature":"4","num_nodes":"43","size_leaf_vector":"1"}},{"base_weights":[-5.6105804E-1,-5.673927E-1,-4.5245594E-1,-5.6455463E-1,-5.926509E-1,-4.623562E-1,-3.8258436E-1,-5.6470644E-1,-4.244998E-1,-6.068385E-1,-5.212175E-1,-4.8468328E-1,-4.4934478E-1,-3.916907E-1,-2.8501576E-1,-5.647249E-1,-3.3175403E-1,-4.7602323E-1,-3.836173E-1,-6.1228895E-1,-5.4940015E-1,-5.384024E-1,-4.4993463E-1,-5.0163937E-1,-4.5388094E-1,-4.5281306E-1,-3.6352783E-1,-3.4681585E-1,-4.0430477E-1,-4.9875048E-1,-2.8116572E-1,-5.64589E-1,-5.856903E-1,-3.086736E-1,-5.3607714E-1,-4.914565E-1,-2.6908404E-1,-3.682002E-1,-4.131946E-1,-6.1248684E-1,-3.1649512E-1,-5.536092E-1,-3.4216022E-1,-5.4369164E-1,-4.119435E-1,-4.632662E-1,-2.9515934E-1,-5.090451E-1,-3.855767E-1,-4.5970434E-1,-3.2613823E-1,-4.5598882E-1,-3.8010138E-1,-3.133505E-1,-3.9626035E-1,-3.6353415E-1,-2.9141977E-1,-3.240236E-1,-4.079608E-1,-1.5908869E-1,-5.246413E-1,-1.4770973E-1,-2.9118875E-1,-1.6937701E-1,-1.4058158E-1,-1.8408836E-1,-1.5944189E-1,-1.0378725E-1,-5.738912E-2,2.6755964E-2,-1.7669342E-1,-1.23730086E-1,-1.5561949E-1,-4.820519E-2,-1.2342969E-1,-1.1158131E-1,7.064449E-2,-1.549293E-1,-1.1512402E-1,-1.8479851E-1,-1.8042827E-1,3.4575868E-1,-1.0263592E-1,-1.495056E-1,-1.689465E-1,-3.4747697E-2,-1.1131018E-1,-1.4646535E-1,-1.6435704E-1,-1.3225865E-1,-9.5844835E-2,-1.4201635E-1,-1.0512352E-1,-7.333192E-2,-1.031352E-1,-1.258832E-1,-1.5441357E-1,-5.8370776E-2,-1.19147815E-1,-1.1341309E-1,-1.4003664E-1,2.3326169E-1,-9.912405E-2,-1.3236941E-1,-1.418425E-1,-1.0616115E-1,-1.2042311E-1,-1.19020686E-1,-8.858039E-2,-1.2759724E-1,-1.1099852E-1,-9.255984E-2,-1.1480457E-1,-8.86884E-2,2.6043411E-3,-1.1443983E-1,-6.766039E-2,-1.3044575E-1,-1.2052987E-1,-1.0788512E-1,4.2341657E-2,-7.954886E-2,-1.6579282E-1,-7.260526E-2,-1.8713174E-2,-1.1030266E-1,-8.4391E-2],"categories":[],"categories_nodes":[],"categories_segments":[],"categories_sizes":[],"default_left":[0,0,0,0,0,0,0,0,0,0,0,0,0,0,0,0,0,0,0,0,0,0,0,0,0,0,0,0,0,0,0,0,0,0,0,0,0,0,0,0,0,0,0,0,0,0,0,0,0,0,0,0,0,0,0,0,0,0,0,0,0,0,0,0,0,0,0,0,0,0,0,0,0,0,0,0,0,0,0,0,0,0,0,0,0,0,0,0,0,0,0,0,0,0,0,0,0,0,0,0,0,0,0,0,0,0,0,0,0,0,0,0,0,0,0,0,0,0,0,0,0,0,0,0,0,0,0],"id":6,"left_children":[1,3,5,7,9,11,13,15,17,19,21,23,25,27,29,31,33,35,37,39,41,43,45,47,49,51,53,55,57,59,61,63,65,67,69,71,73,75,77,79,81,83,85,87,89,91,93,95,97,99,101,103,105,107,109,111,113,115,117,119,121,123,125,-1,-1,-1,-1,-1,-1,-1,-1,-1,-1,-1,-1,-1,-1,-1,-1,-1,-1,-1,-1,-1,-1,-1,-1,-1,-1,-1,-1,-1,-1,-1,-1,-1,-1,-1,-1,-1,-1,-1,-1,-1,-1,-1,-1,-1,-1,-1,-1,-1,-1,-1,-1,-1,-1,-1,-1,-1,-1,-1,-1,-1,-1,-1,-1],"loss_changes":[1.929E3,1.89625E2,1.0674609E2,5.04375E1,2.709375E2,3.911133E1,1.6937744E1,1.0125E1,5.26001E0,6.957031E1,5.4094727E1,2.5798828E1,2.5298828E1,9.792969E0,1.2107239E0,6.375E0,7.3617554E-1,3.505371E0,5.071411E-1,1.175E1,1.669873E1,2.3679688E1,1.7654785E1,2.7421875E1,1.3019287E1,1.8810547E1,5.3420715E0,3.4665222E0,3.8862305E0,1.6063643E-1,2.1172333E0,1.25E-1,2.284375E1,6.959286E-1,6.495037E-1,2.0680084E0,1.1877618E0,2.2527008E0,1.2830276E0,7.5390625E0,5.6042633E0,9.728516E0,2.4928436E0,7.6572266E0,3.7062683E0,8.900391E0,1.6091614E0,1.5090332E1,4.195648E0,9.617432E0,3.9151459E0,1.934375E1,1.7845764E0,1.8712463E0,1.3773193E0,2.9983215E0,1.1382828E0,3.3153763E0,2.003662E0,2.5551936E-1,3.7691593E-2,9.091368E-1,1.0315857E0,0E0,0E0,0E0,0E0,0E0,0E0,0E0,0E0,0E0,0E0,0E0,0E0,0E0,0E0,0E0,0E0,0E0,0E0,0E0,0E0,0E0,0E0,0E0,0E0,0E0,0E0,0E0,0E0,0E0,0E0,0E0,0E0,0E0,0E0,0E0,0E0,0E0,0E0,0E0,0E0,0E0,0E0,0E0,0E0,0E0,0E0,0E0,0E0,0E0,0E0,0E0,0E0,0E0,0E0,0E0,0E0,0E0,0E0,0E0,0E0,0E0,0E0,0E0,0E0],"parents":[2147483647,0,0,1,1,2,2,3,3,4,4,5,5,6,6,7,7,8,8,9,9,10,10,11,11,12,12,13,13,14,14,15,15,16,16,17,17,18,18,19,19,20,20,21,21,22,22,23,23,24,24,25,25,26,26,27,27,28,28,29,29,30,30,31,31,32,32,33,33,34,34,35,35,36,36,37,37,38,38,39,39,40,40,41,41,42,42,43,43,44,44,45,45,46,46,47,47,48,48,49,49,50,50,51,51,52,52,53,53,54,54,55,55,56,56,57,57,58,58,59,59,60,60,61,61,62,62],"right_children":[2,4,6,8,10,12,14,16,18,20,22,24,26,28,30,32,34,36,38,40,42,44,46,48,50,52,54,56,58,60,62,64,66,68,70,72,74,76,78,80,82,84,86,88,90,92,94,96,98,100,102,104,106,108,110,112,114,116,118,120,122,124,126,-1,-1,-1,-1,-1,-1,-1,-1,-1,-1,-1,-1,-1,-1,-1,-1,-1,-1,-1,-1,-1,-1,-1,-1,-1,-1,-1,-1,-1,-1,-1,-1,-1,-1,-1,-1,-1,-1,-1,-1,-1,-1,-1,-1,-1,-1,-1,-1,-1,-1,-1,-1,-1,-1,-1,-1,-1,-1,-1,-1,-1,-1,-1,-1],"split_conditions":[3.4E2,4.8E1,5.03E2,3.82E2,2.85E2,3.92E2,7.03E2,3.83E2,4.27E2,2.52E2,3.82E2,3.87E2,5.12E2,4.63E2,5.38E2,4.8E1,3.77E2,4.54E2,2.72E2,3.08E2,3.52E2,3.75E2,4.99E2,3.98E2,5.07E2,5.17E2,4.72E2,5.94E2,4.63E2,3.58E2,4.37E2,1.46E2,2.08E2,4.13E2,3.49E2,2.9E2,4.17E2,2.55E2,4.21E2,1.71E2,1.24E2,2.33E2,2.85E2,2.4E2,4.01E2,4.37E2,4.74E2,3.03E2,3.36E2,3.47E2,2.79E2,4.35E2,4.7E2,3.34E2,5.23E2,4.87E2,4.61E2,5.23E2,5.12E2,3.49E2,5.08E2,4.07E2,5.64E2,-1.6937701E-1,-1.4058158E-1,-1.8408836E-1,-1.5944189E-1,-1.0378725E-1,-5.738912E-2,2.6755964E-2,-1.7669342E-1,-1.23730086E-1,-1.5561949E-1,-4.820519E-2,-1.2342969E-1,-1.1158131E-1,7.064449E-2,-1.549293E-1,-1.1512402E-1,-1.8479851E-1,-1.8042827E-1,3.4575868E-1,-1.0263592E-1,-1.495056E-1,-1.689465E-1,-3.4747697E-2,-1.1131018E-1,-1.4646535E-1,-1.6435704E-1,-1.3225865E-1,-9.5844835E-2,-1.4201635E-1,-1.0512352E-1,-7.333192E-2,-1.031352E-1,-1.258832E-1,-1.5441357E-1,-5.8370776E-2,-1.19147815E-1,-1.1341309E-1,-1.4003664E-1,2.3326169E-1,-9.912405E-2,-1.3236941E-1,-1.418425E-1,-1.0616115E-1,-1.2042311E-1,-1.19020686E-1,-8.858039E-2,-1.2759724E-1,-1.1099852E-1,-9.255984E-2,-1.1480457E-1,-8.86884E-2,2.6043411E-3,-1.1443983E-1,-6.766039E-2,-1.3044575E-1,-1.2052987E-1,-1.0788512E-1,4.2341657E-2,-7.954886E-2,-1.6579282E-1,-7.260526E-2,-1.8713174E-2,-1.1030266E-1,-8.4391E-2],"split_indices":[3,3,2,0,0,3,1,2,0,3,0,0,3,0,2,0,0,1,2,1,2,1,0,2,0,0,2,3,3,3,3,2,0,1,1,1,2,2,1,3,3,2,3,2,1,1,1,2,1,2,2,1,2,2,3,3,0,2,2,3,2,3,0,0,0,0,0,0,0,0,0,0,0,0,0,0,0,0,0,0,0,0,0,0,0,0,0,0,0,0,0,0,0,0,0,0,0,0,0,0,0,0,0,0,0,0,0,0,0,0,0,0,0,0,0,0,0,0,0,0,0,0,0,0,0,0,0],"split_type":[0,0,0,0,0,0,0,0,0,0,0,0,0,0,0,0,0,0,0,0,0,0,0,0,0,0,0,0,0,0,0,0,0,0,0,0,0,0,0,0,0,0,0,0,0,0,0,0,0,0,0,0,0,0,0,0,0,0,0,0,0,0,0,0,0,0,0,0,0,0,0,0,0,0,0,0,0,0,0,0,0,0,0,0,0,0,0,0,0,0,0,0,0,0,0,0,0,0,0,0,0,0,0,0,0,0,0,0,0,0,0,0,0,0,0,0,0,0,0,0,0,0,0,0,0,0,0],"sum_hessian":[2.8043978E6,2.6498308E6,1.5456698E5,2.382183E6,2.6764766E5,1.3537917E5,1.9187809E4,2.3796002E6,2.5828176E3,2.2329145E5,4.4356195E4,4.9832426E4,8.554674E4,1.754708E4,1.6407289E3,2.37941E6,1.9019452E2,1.1379886E3,1.4448289E3,2.0393039E5,1.936106E4,3.5734707E4,8.621489E3,3.213015E4,1.7702277E4,8.221959E4,3.3271443E3,3.8563848E3,1.3690695E4,2.6757278E1,1.6139716E3,2.3641145E6,1.5295618E4,1.7314651E2,1.7048016E1,1.0577296E3,8.025903E1,9.586059E2,4.8622296E2,2.0379298E5,1.3740385E2,1.8974031E4,3.8702917E2,3.4296906E4,1.4378004E3,7.9359336E3,6.8555536E2,3.0199764E4,1.9303856E3,1.6927982E4,7.742956E2,7.877378E4,3.4458118E3,1.3177195E3,2.0094248E3,2.9580842E3,8.9830066E2,6.0022644E2,1.309047E4,2.4011517E0,2.4356127E1,1.1384696E2,1.5001246E3,2.3640852E6,2.9042385E1,1.00873955E4,5.2082227E3,1.2992822E2,4.3218292E1,1.2763433E0,1.5771673E1,2.755403E2,7.8218933E2,4.6771065E1,3.3487972E1,9.5308905E2,5.516824E0,1.0424188E2,3.8198108E2,1.54674E5,4.911898E4,1.6017244E0,1.3580212E2,2.8028142E3,1.6171218E4,4.4354603E1,3.4267456E2,2.403501E3,3.1893404E4,1.0923738E3,3.454266E2,7.279829E3,6.561047E2,3.3849918E2,3.4705618E2,1.8039669E3,2.8395797E4,1.1138339E2,1.8190022E3,1.3556807E3,1.5572302E4,2.289854E0,7.7200574E2,4.1973418E4,3.6800367E4,1.5524209E3,1.8933909E3,2.3109895E2,1.0866205E3,9.466838E2,1.062741E3,7.6829407E2,2.18979E3,8.8589294E2,1.2407682E1,3.7729852E2,2.2292789E2,2.4403733E3,1.0650096E4,1.3210075E0,1.0801442E0,3.3921323E0,2.0963995E1,5.320722E1,6.0639744E1,1.6754944E2,1.3325752E3],"tree_param":{"num_deleted":"0","num_feature":"4","num_nodes":"127","size_leaf_vector":"1"}},{"base_weights":[-6.0934705E-1,-6.101254E-1,-5.8647007E-1,-6.0947084E-1,-6.1484665E-1,-5.9261554E-1,-5.609201E-1,-6.0952866E-1,-1.7638928E-1,-6.165954E-1,-6.0427237E-1,-1.7855164E-1,-5.7699823E-1,-5.5671406E-1,-1.8380342E-1,-1.8285884E-1,-4.375012E-1,-1.852489E-1,-6.0955244E-1,-5.877702E-1,-6.0531664E-1,-5.741758E-1,-1.821409E-1,-5.7049185E-1,-5.350766E-1,-4.9719897E-1,3.1173054E-2,-1.8287462E-1,1.0404869E-2,-1.7993316E-1,-1.7275326E-1,-1.828826E-1,-6.0142E-1,-5.7744884E-1,-5.465517E-1,-5.741913E-1,-5.5310977E-1,-5.282754E-1,-5.6863E-1,-6.969199E-2,-1.6761182E-1,-1.2849039E-2,-1.804381E-1,-1.7722453E-1,-1.7208539E-1,4.2643365E-2,-1.6422403E-1,-1.731655E-1,-1.6750976E-1,-1.7293735E-1,-1.6285405E-1,-1.6096929E-1,-1.5337707E-1,-3.1847004E-2,-1.7082828E-1],"categories":[],"categories_nodes":[],"categories_segments":[],"categories_sizes":[],"default_left":[0,0,0,0,0,0,0,0,0,0,0,0,0,0,0,0,0,0,0,0,0,0,0,0,0,0,0,0,0,0,0,0,0,0,0,0,0,0,0,0,0,0,0,0,0,0,0,0,0,0,0,0,0,0,0],"id":7,"left_children":[1,3,5,7,9,11,13,15,-1,17,19,-1,21,23,-1,-1,25,-1,27,29,31,33,-1,35,37,39,-1,-1,-1,-1,-1,-1,41,43,45,47,49,51,53,-1,-1,-1,-1,-1,-1,-1,-1,-1,-1,-1,-1,-1,-1,-1,-1],"loss_changes":[4.925E1,7.8125E0,1.4025391E1,2.625E0,5.671875E0,2.5976562E0,3.5214844E0,6.25E-2,0E0,1.40625E0,4.453125E-1,0E0,5.3564453E-1,4.5908203E0,0E0,0E0,5.1152086E-1,0E0,6.298828E-1,5.5480957E-2,3.642578E-1,5.456543E-1,0E0,3.2666016E-1,1.1611328E0,8.1813335E-2,0E0,0E0,0E0,0E0,0E0,0E0,4.9121094E-1,9.399414E-2,6.877136E-1,7.2021484E-2,1.14868164E-1,4.7888184E-1,3.3294678E-1,0E0,0E0,0E0,0E0,0E0,0E0,0E0,0E0,0E0,0E0,0E0,0E0,0E0,0E0,0E0,0E0],"parents":[2147483647,0,0,1,1,2,2,3,3,4,4,5,5,6,6,7,7,9,9,10,10,12,12,13,13,16,16,18,18,19,19,20,20,21,21,23,23,24,24,25,25,32,32,33,33,34,34,35,35,36,36,37,37,38,38],"right_children":[2,4,6,8,10,12,14,16,-1,18,20,-1,22,24,-1,-1,26,-1,28,30,32,34,-1,36,38,40,-1,-1,-1,-1,-1,-1,42,44,46,48,50,52,54,-1,-1,-1,-1,-1,-1,-1,-1,-1,-1,-1,-1,-1,-1,-1,-1],"split_conditions":[4.03E2,4.8E1,4.99E2,1.84E2,3.66E2,4.99E2,7.02E2,3.63E2,-1.7638928E-1,3.28E2,4.8E1,-1.7855164E-1,5.94E2,5.23E2,-1.8380342E-1,-1.8285884E-1,4.8E1,-1.852489E-1,5.94E2,4.25E2,3.63E2,5.12E2,-1.821409E-1,5.12E2,5.94E2,4.13E2,3.1173054E-2,-1.8287462E-1,1.0404869E-2,-1.7993316E-1,-1.7275326E-1,-1.828826E-1,1.46E2,4.17E2,4.7E2,5.3E2,5.12E2,5.49E2,4.05E2,-6.969199E-2,-1.6761182E-1,-1.2849039E-2,-1.804381E-1,-1.7722453E-1,-1.7208539E-1,4.2643365E-2,-1.6422403E-1,-1.731655E-1,-1.6750976E-1,-1.7293735E-1,-1.6285405E-1,-1.6096929E-1,-1.5337707E-1,-3.1847004E-2,-1.7082828E-1],"split_indices":[0,3,3,0,3,0,2,1,0,0,0,0,1,1,0,0,0,0,1,3,0,2,0,0,2,1,0,0,0,0,0,0,2,2,1,2,3,3,0,0,0,0,0,0,0,0,0,0,0,0,0,0,0,0,0],"split_type":[0,0,0,0,0,0,0,0,0,0,0,0,0,0,0,0,0,0,0,0,0,0,0,0,0,0,0,0,0,0,0,0,0,0,0,0,0,0,0,0,0,0,0,0,0,0,0,0,0,0,0,0,0,0,0],"sum_hessian":[2.777565E6,2.6861422E6,9.142259E4,2.359167E6,3.2697534E5,7.367858E4,1.774401E4,2.352813E6,6.3538516E3,2.8052556E5,4.6449793E4,6.328208E4,1.0396501E4,1.6421293E4,1.3227179E3,2.3527998E6,1.3227781E1,2.4863355E5,3.1892006E4,2.79794E3,4.365185E4,9.524566E3,8.719346E2,1.001732E4,6.4039717E3,1.1987646E1,1.2401354E0,3.1890594E4,1.4128144E0,1.3696796E3,1.4282604E3,2.069808E4,2.2953771E4,8.497795E3,1.0267717E3,8.233042E3,1.7842783E3,5.338589E3,1.0653832E3,3.1591318E0,8.828514E0,1.7350129E0,2.2952037E4,1.8661168E3,6.631678E3,1.0782152E0,1.0256936E3,6.881342E3,1.3517003E3,5.279781E2,1.2563002E3,3.5695215E3,1.7690673E3,2.065225E0,1.063318E3],"tree_param":{"num_deleted":"0","num_feature":"4","num_nodes":"55","size_leaf_vector":"1"}},{"base_weights":[8.6272657E-1,8.656099E-1,8.017806E-1,8.660782E-1,8.173582E-1,8.0995136E-1,7.59174E-1,8.641316E-1,8.832056E-1,8.217612E-1,7.414524E-1,8.1372064E-1,7.682027E-1,7.716103E-1,7.464802E-1,8.6419135E-1,8.274146E-1,8.9098984E-1,8.6195654E-1,8.293775E-1,7.94786E-1,7.2601646E-1,7.609484E-1,7.647654E-1,8.1496817E-1,7.8038096E-1,7.468437E-1,7.75075E-1,7.2011036E-1,7.2383153E-1,7.497318E-1,8.6411875E-1,8.908875E-1,2.4949366E-1,6.547361E-1,8.9190507E-1,8.405446E-1,8.643674E-1,7.788143E-1,7.748038E-1,8.347638E-1,7.655422E-1,8.077006E-1,7.4550545E-1,6.799496E-1,2.548355E-1,7.4901974E-1,7.6763374E-1,5.5877024E-1,8.161268E-1,7.625597E-1,6.878075E-1,7.825872E-1,7.9551667E-1,7.389012E-1,7.424329E-1,7.79803E-1,2.6832297E-1,7.143883E-1,7.261252E-1,5.3723305E-1,8.113908E-1,7.4816364E-1,2.5924388E-1,2.4761684E-1,2.6749158E-1,2.1367584E-1,2.0070839E-1,-4.2182337E-2,2.6769972E-1,2.537957E-1,2.568044E-1,2.3919165E-1,2.5959098E-1,2.3894279E-1,2.185593E-1,2.3845847E-1,2.3296587E-1,1.22573845E-1,2.5066003E-1,2.1821377E-1,2.3231378E-1,2.05871E-1,2.3345104E-1,2.4598527E-1,2.2490312E-1,8.471914E-2,2.0786151E-1,9.347878E-2,9.129158E-2,2.2529508E-1,2.3185036E-1,2.0051406E-1,2.5801092E-1,1.4385282E-1,2.4500938E-1,2.2891405E-1,2.1711187E-1,2.3278476E-1,2.1360554E-1,1.399424E-1,2.2442032E-1,2.3590158E-1,1.7259268E-1,2.405399E-1,2.1039908E-1,2.2473401E-1,2.4497055E-1,2.2103125E-1,2.3535047E-1,2.261618E-1,1.8639582E-1,2.1993704E-1,2.2350045E-1,2.1240069E-1,8.080888E-2,2.0022944E-1,1.4872639E-1,2.4618846E-1,2.2554813E-1,2.1980135E-1],"categories":[],"categories_nodes":[],"categories_segments":[],"categories_sizes":[],"default_left":[0,0,0,0,0,0,0,0,0,0,0,0,0,0,0,0,0,0,0,0,0,0,0,0,0,0,0,0,0,0,0,0,0,0,0,0,0,0,0,0,0,0,0,0,0,0,0,0,0,0,0,0,0,0,0,0,0,0,0,0,0,0,0,0,0,0,0,0,0,0,0,0,0,0,0,0,0,0,0,0,0,0,0,0,0,0,0,0,0,0,0,0,0,0,0,0,0,0,0,0,0,0,0,0,0,0,0,0,0,0,0,0,0,0,0,0,0,0,0,0,0],"id":8,"left_children":[1,3,5,7,9,11,13,15,17,19,21,23,25,27,29,31,33,35,37,39,41,43,45,47,49,51,53,55,57,59,61,63,65,-1,67,69,71,73,75,77,79,81,83,85,87,-1,89,91,93,95,97,99,101,103,105,107,109,-1,111,113,115,117,119,-1,-1,-1,-1,-1,-1,-1,-1,-1,-1,-1,-1,-1,-1,-1,-1,-1,-1,-1,-1,-1,-1,-1,-1,-1,-1,-1,-1,-1,-1,-1,-1,-1,-1,-1,-1,-1,-1,-1,-1,-1,-1,-1,-1,-1,-1,-1,-1,-1,-1,-1,-1,-1,-1,-1,-1,-1,-1],"loss_changes":[7.76E2,9.475E1,6.889844E1,1.3875E2,1.2953125E1,2.5734375E1,4.5E0,7.5E0,6.978125E1,7.220703E0,1.2023926E-1,8.765625E0,3.0302734E0,2.3339844E0,6.308594E-1,6.25E0,3.9282227E0,1.3671875E1,2.2257812E1,8.136719E0,2.5795898E0,6.3275146E-1,3.8458252E-1,1.8364258E0,8.46875E0,1.2646484E0,1.3713379E0,1.7626953E0,3.9416504E-1,4.790039E-1,7.3779297E-1,3.75E0,7.241211E-1,0E0,1.8116226E0,5.25E0,3.0498047E0,6.359375E0,2.0302734E0,1.4112549E0,1.6386719E0,1.2999268E0,1.4802246E0,1.4915161E0,1.6344452E0,0E0,5.230713E-1,1.4343262E0,9.327431E-1,3.8203125E0,1.1320801E0,8.1290436E-1,5.2734375E-1,5.04303E-1,1.1516113E0,2.130127E-1,1.0209961E0,0E0,1.3018799E0,1.574707E-1,8.1401825E-1,5.646057E-1,2.2021484E-1,0E0,0E0,0E0,0E0,0E0,0E0,0E0,0E0,0E0,0E0,0E0,0E0,0E0,0E0,0E0,0E0,0E0,0E0,0E0,0E0,0E0,0E0,0E0,0E0,0E0,0E0,0E0,0E0,0E0,0E0,0E0,0E0,0E0,0E0,0E0,0E0,0E0,0E0,0E0,0E0,0E0,0E0,0E0,0E0,0E0,0E0,0E0,0E0,0E0,0E0,0E0,0E0,0E0,0E0,0E0,0E0,0E0,0E0],"parents":[2147483647,0,0,1,1,2,2,3,3,4,4,5,5,6,6,7,7,8,8,9,9,10,10,11,11,12,12,13,13,14,14,15,15,16,16,17,17,18,18,19,19,20,20,21,21,22,22,23,23,24,24,25,25,26,26,27,27,28,28,29,29,30,30,31,31,32,32,34,34,35,35,36,36,37,37,38,38,39,39,40,40,41,41,42,42,43,43,44,44,46,46,47,47,48,48,49,49,50,50,51,51,52,52,53,53,54,54,55,55,56,56,58,58,59,59,60,60,61,61,62,62],"right_children":[2,4,6,8,10,12,14,16,18,20,22,24,26,28,30,32,34,36,38,40,42,44,46,48,50,52,54,56,58,60,62,64,66,-1,68,70,72,74,76,78,80,82,84,86,88,-1,90,92,94,96,98,100,102,104,106,108,110,-1,112,114,116,118,120,-1,-1,-1,-1,-1,-1,-1,-1,-1,-1,-1,-1,-1,-1,-1,-1,-1,-1,-1,-1,-1,-1,-1,-1,-1,-1,-1,-1,-1,-1,-1,-1,-1,-1,-1,-1,-1,-1,-1,-1,-1,-1,-1,-1,-1,-1,-1,-1,-1,-1,-1,-1,-1,-1,-1,-1,-1,-1],"split_conditions":[3.66E2,3.65E2,4.99E2,4.8E1,5.07E2,4.99E2,5.3E2,1.91E2,2.23E2,4.09E2,3.71E2,3.28E2,5.3E2,5.49E2,3.75E2,4.8E1,3.71E2,2.48E2,3.73E2,3.21E2,4.21E2,3.12E2,3.82E2,4.54E2,5.03E2,3.89E2,4.87E2,4.7E2,4.21E2,3.73E2,3.94E2,2.08E2,2.14E2,2.4949366E-1,5.65E2,2.37E2,3.05E2,3.73E2,3.25E2,3.49E2,4.79E2,4.59E2,3.18E2,3.43E2,5.94E2,2.548355E-1,4.15E2,4.65E2,2.87E2,5.03E2,4.63E2,4.63E2,4.65E2,3.32E2,4.65E2,3.34E2,5.3E2,2.6832297E-1,5.3E2,3.52E2,4.01E2,3.75E2,5.94E2,2.5924388E-1,2.4761684E-1,2.6749158E-1,2.1367584E-1,2.0070839E-1,-4.2182337E-2,2.6769972E-1,2.537957E-1,2.568044E-1,2.3919165E-1,2.5959098E-1,2.3894279E-1,2.185593E-1,2.3845847E-1,2.3296587E-1,1.22573845E-1,2.5066003E-1,2.1821377E-1,2.3231378E-1,2.05871E-1,2.3345104E-1,2.4598527E-1,2.2490312E-1,8.471914E-2,2.0786151E-1,9.347878E-2,9.129158E-2,2.2529508E-1,2.3185036E-1,2.0051406E-1,2.5801092E-1,1.4385282E-1,2.4500938E-1,2.2891405E-1,2.1711187E-1,2.3278476E-1,2.1360554E-1,1.399424E-1,2.2442032E-1,2.3590158E-1,1.7259268E-1,2.405399E-1,2.1039908E-1,2.2473401E-1,2.4497055E-1,2.2103125E-1,2.3535047E-1,2.261618E-1,1.8639582E-1,2.1993704E-1,2.2350045E-1,2.1240069E-1,8.080888E-2,2.0022944E-1,1.4872639E-1,2.4618846E-1,2.2554813E-1,2.1980135E-1],"split_indices":[3,0,3,1,0,0,3,3,1,1,2,2,0,2,0,3,2,3,1,1,0,2,2,0,2,2,1,2,1,0,0,0,2,0,2,0,3,2,0,2,0,1,3,3,1,0,1,3,2,1,3,1,1,2,2,2,1,0,1,1,1,2,0,0,0,0,0,0,0,0,0,0,0,0,0,0,0,0,0,0,0,0,0,0,0,0,0,0,0,0,0,0,0,0,0,0,0,0,0,0,0,0,0,0,0,0,0,0,0,0,0,0,0,0,0,0,0,0,0,0,0],"split_type":[0,0,0,0,0,0,0,0,0,0,0,0,0,0,0,0,0,0,0,0,0,0,0,0,0,0,0,0,0,0,0,0,0,0,0,0,0,0,0,0,0,0,0,0,0,0,0,0,0,0,0,0,0,0,0,0,0,0,0,0,0,0,0,0,0,0,0,0,0,0,0,0,0,0,0,0,0,0,0,0,0,0,0,0,0,0,0,0,0,0,0,0,0,0,0,0,0,0,0,0,0,0,0,0,0,0,0,0,0,0,0,0,0,0,0,0,0,0,0,0,0],"sum_hessian":[4.4202975E6,4.2206105E6,1.9968711E5,4.1800268E6,4.058354E4,1.6753967E5,3.2147447E4,3.753491E6,4.2653572E5,3.834922E4,2.2343228E3,1.5364886E5,1.3890814E4,1.6208131E4,1.5939316E4,3.7473705E6,6.1205186E3,3.1214512E5,1.1439059E5,2.9882379E4,8.466838E3,1.2683486E3,9.659742E2,3.8332925E3,1.4981556E5,8.82408E3,5.0667344E3,1.5173286E4,1.034845E3,2.0291093E3,1.3910207E4,3.737234E6,1.0136575E4,5.9704165E3,1.501021E2,3.065665E5,5.5786045E3,1.11157945E5,3.2326519E3,2.6974165E3,2.7184963E4,2.6121572E3,5.854681E3,8.806141E2,3.8773453E2,1.0639326E2,8.5958093E2,3.7779602E3,5.5332382E1,1.4656072E5,3.2548513E3,2.126813E2,8.611398E3,6.9689014E2,4.369844E3,1.9396631E3,1.3233623E4,2.7956324E1,1.0068887E3,2.0016141E3,2.749503E1,3.321868E2,1.35780205E4,3.7345635E6,2.6703218E3,1.0090162E4,4.6413273E1,1.4760849E2,2.4936101E0,3.037216E5,2.8449258E3,4.0947812E3,1.4838232E3,1.0963502E5,1.5229259E3,7.932926E2,2.4393591E3,2.68348E3,1.3936367E1,2.6984775E4,2.0018695E2,2.3423816E3,2.697755E2,1.7355353E3,4.119146E3,8.7213916E2,8.474905E0,3.7374237E2,1.3992151E1,4.464827E0,8.551161E2,3.5834077E3,1.9455235E2,9.473482E0,4.58589E1,1.4498653E5,1.5741877E3,8.4830255E2,2.4065488E3,1.8971228E2,2.296902E1,8.637598E2,7.7476387E3,2.1899738E1,6.7499036E2,9.48804E2,3.42104E3,1.27467766E2,1.8121953E3,1.1178779E4,2.0548438E3,1.7445006E2,8.324386E2,9.607836E2,1.0408306E3,9.996694E0,1.7498335E1,1.0999687E1,3.2118713E2,1.0942914E4,2.6351067E3],"tree_param":{"num_deleted":"0","num_feature":"4","num_nodes":"121","size_leaf_vector":"1"}},{"base_weights":[-5.804961E-1,-5.8072364E-1,-5.58937E-1,-5.802136E-1,-5.8382815E-1,-5.151738E-1,-5.600501E-1,-5.8021873E-1,-4.4163692E-1,-5.8510333E-1,-5.7486415E-1,-1.6740975E-1,-4.8489422E-1,-5.7447237E-1,-5.56178E-1,-1.7406721E-1,-5.368065E-1,-1.4147392E-1,-2.8428727E-1,-1.7572474E-1,-1.74193E-1,-1.7309108E-1,-5.623758E-1,-8.990796E-3,-4.9160334E-1,-1.7310284E-1,-5.443519E-1,-5.6414664E-1,-5.521305E-1,-2.6672995E-1,-1.6200921E-1,-3.521198E-2,-9.176112E-2,-1.720052E-1,-1.6622359E-1,-1.1672523E-1,2.5956187E-1,-5.06128E-1,-3.973891E-1,-5.497083E-1,-4.3094212E-1,-1.7041646E-1,-1.6416709E-1,-5.323812E-1,-1.6605559E-1,5.825258E-2,-1.3173889E-1,3.8707184E-3,1.2149892E-1,-1.6732262E-1,-1.463116E-1,1.0682163E-1,-1.2877999E-1,-1.5051867E-1,-1.7087919E-1,-1.6423474E-1,-6.837302E-2,-1.6022983E-1,-1.0817952E-1],"categories":[],"categories_nodes":[],"categories_segments":[],"categories_sizes":[],"default_left":[0,0,0,0,0,0,0,0,0,0,0,0,0,0,0,0,0,0,0,0,0,0,0,0,0,0,0,0,0,0,0,0,0,0,0,0,0,0,0,0,0,0,0,0,0,0,0,0,0,0,0,0,0,0,0,0,0,0,0],"id":9,"left_children":[1,3,5,7,9,11,13,15,17,19,21,-1,23,25,27,-1,29,-1,31,-1,-1,-1,33,35,37,-1,39,41,43,45,-1,-1,-1,-1,-1,-1,47,49,51,53,55,-1,-1,57,-1,-1,-1,-1,-1,-1,-1,-1,-1,-1,-1,-1,-1,-1,-1],"loss_changes":[1.08125E1,3.125E0,8.6279297E-1,1.125E0,3.28125E0,5.063324E-1,9.667969E-1,1.875E-1,2.2146606E-1,4.53125E-1,7.0996094E-1,0E0,1.1400986E0,5.6152344E-2,2.7539062E-1,0E0,7.211304E-2,0E0,1.6630292E-2,0E0,0E0,0E0,2.0288086E-1,7.1362144E-1,2.8253174E-1,0E0,2.5100708E-3,9.1308594E-2,3.7597656E-2,4.7496995E-1,0E0,0E0,0E0,0E0,0E0,0E0,1.4245391E-1,1.5716553E-2,1.3986082E0,6.9869995E-2,4.0516472E-1,0E0,0E0,4.99115E-2,0E0,0E0,0E0,0E0,0E0,0E0,0E0,0E0,0E0,0E0,0E0,0E0,0E0,0E0,0E0],"parents":[2147483647,0,0,1,1,2,2,3,3,4,4,5,5,6,6,7,7,8,8,9,9,10,10,12,12,13,13,14,14,16,16,18,18,22,22,23,23,24,24,26,26,27,27,28,28,29,29,36,36,37,37,38,38,39,39,40,40,43,43],"right_children":[2,4,6,8,10,12,14,16,18,20,22,-1,24,26,28,-1,30,-1,32,-1,-1,-1,34,36,38,-1,40,42,44,46,-1,-1,-1,-1,-1,-1,48,50,52,54,56,-1,-1,58,-1,-1,-1,-1,-1,-1,-1,-1,-1,-1,-1,-1,-1,-1,-1],"split_conditions":[4.84E2,4.8E1,4.8E1,7.02E2,4.25E2,4.37E2,4.41E2,5.12E2,5.65E2,3.82E2,5.03E2,-1.6740975E-1,4.41E2,5.94E2,5.03E2,-1.7406721E-1,2.7E2,-1.4147392E-1,7.02E2,-1.7572474E-1,-1.74193E-1,-1.7309108E-1,4.31E2,4.96E2,7.03E2,-1.7310284E-1,4.35E2,5.17E2,4.65E2,5.38E2,-1.6200921E-1,-3.521198E-2,-9.176112E-2,-1.720052E-1,-1.6622359E-1,-1.1672523E-1,5.49E2,5.07E2,5.94E2,4.67E2,7.02E2,-1.7041646E-1,-1.6416709E-1,5.65E2,-1.6605559E-1,5.825258E-2,-1.3173889E-1,3.8707184E-3,1.2149892E-1,-1.6732262E-1,-1.463116E-1,1.0682163E-1,-1.2877999E-1,-1.5051867E-1,-1.7087919E-1,-1.6423474E-1,-6.837302E-2,-1.6022983E-1,-1.0817952E-1],"split_indices":[3,3,0,0,0,2,0,1,2,3,0,0,2,2,3,0,0,0,2,0,0,0,3,3,1,0,0,0,1,1,0,0,0,0,0,0,3,3,2,1,2,0,0,2,0,0,0,0,0,0,0,0,0,0,0,0,0,0,0],"split_type":[0,0,0,0,0,0,0,0,0,0,0,0,0,0,0,0,0,0,0,0,0,0,0,0,0,0,0,0,0,0,0,0,0,0,0,0,0,0,0,0,0,0,0,0,0,0,0,0,0,0,0,0,0,0,0,0,0,0,0],"sum_hessian":[2.2601178E6,2.236484E6,2.363358E4,1.9210556E6,3.154285E5,5.9768384E2,2.3035895E4,1.9209811E6,7.446005E1,2.760895E5,3.933898E4,2.4022795E2,3.574559E2,4.8444897E3,1.8191406E4,1.9207339E6,2.4723627E2,6.0878235E1,1.3581814E1,2.4105439E5,3.503512E4,3.3623277E4,5.715704E3,5.001759E0,3.5245413E2,4.451386E3,3.9310333E2,6.080897E3,1.2110509E4,3.904384E0,2.433319E2,2.2923121E0,1.1289502E1,2.4314587E3,3.2842454E3,1.8850104E0,3.1167488E0,3.0158743E2,5.0866714E1,3.7170038E2,2.1402945E1,4.913585E3,1.1673119E3,8.205356E2,1.1289974E4,1.028476E0,2.875908E0,1.5598805E0,1.5568683E0,7.163009E1,2.2995734E2,1.6519103E0,4.9214806E1,1.16613174E2,2.5508722E2,1.252137E1,8.881576E0,8.103213E2,1.0214256E1],"tree_param":{"num_deleted":"0","num_feature":"4","num_nodes":"59","size_leaf_vector":"1"}},{"base_weights":[-5.176082E-1,-5.2532214E-1,-4.0056574E-1,-5.21666E-1,-5.5990356E-1,-4.1157278E-1,-3.2655236E-1,-5.218526E-1,-3.738097E-1,-5.7300514E-1,-4.7282282E-1,-4.4277394E-1,-3.9587945E-1,-3.42893E-1,-2.7750564E-1,-5.218715E-1,-2.5912473E-1,-4.2563167E-1,-3.2397777E-1,-5.799902E-1,-5.2350295E-1,-4.83214E-1,-3.156876E-1,-4.5761523E-1,-3.7687537E-1,-4.0040943E-1,-3.1229398E-1,-2.7944428E-1,-3.5016182E-1,-2.1410266E-1,-2.919883E-1,-5.217027E-1,-5.485682E-1,6.774884E-2,-2.68009E-1,-4.4126987E-1,-2.078135E-1,-2.7718538E-1,-3.344221E-1,-5.8017755E-1,-7.5413205E-2,-5.2798945E-1,-2.8731862E-1,-5.1075655E-1,-4.4833153E-1,-6.099296E-3,-3.2372582E-1,-3.8105458E-1,-4.6452406E-1,-3.8465926E-1,-2.0362008E-1,-3.1490976E-1,-4.0307528E-1,-3.2710034E-1,-2.205821E-1,-2.4388559E-1,-3.2507655E-1,-3.687283E-1,-3.3689225E-1,-2.9565242E-1,-1.6510794E-1,-3.2479674E-1,-2.3162396E-1,-1.5651119E-1,-1.18543655E-1,-1.7412932E-1,-1.4559443E-1,-9.30296E-2,-4.4497166E-2,-1.02893904E-1,-1.4262405E-1,-4.7552E-2,-1.438941E-1,-6.315216E-2,-1.1673395E-1,-1.1426579E-1,-9.659799E-2,-1.7438631E-1,-1.6452417E-1,2.882405E-1,-3.76074E-2,-1.3682435E-1,-1.6085829E-1,-9.7527765E-2,-3.2652546E-2,-1.5450181E-1,-1.0823845E-1,-1.356E-1,-5.1183846E-2,-4.6894412E-2,8.758775E-2,-1.0938989E-1,-7.835992E-2,-1.21988736E-1,-9.434358E-2,-1.409576E-1,-1.1212487E-1,-7.812759E-2,-1.177991E-1,-1.3749023E-1,-5.4941375E-2,-9.825071E-2,-7.015202E-2,-1.21833496E-1,-1.05913624E-1,-7.524887E-2,-9.984454E-2,-4.0315516E-2,-8.6506024E-2,-1.1209758E-1,-6.64192E-2,-9.226051E-2,-1.3770375E-1,-1.1594772E-1,-9.4493255E-2,-9.594401E-2,-1.0810839E-1,-9.812033E-2,-5.600613E-2,2.3717944E-1,-5.156253E-2,-8.131704E-2,-1.06033385E-1,2.6157446E-2,-7.0861E-2],"categories":[],"categories_nodes":[],"categories_segments":[],"categories_sizes":[],"default_left":[0,0,0,0,0,0,0,0,0,0,0,0,0,0,0,0,0,0,0,0,0,0,0,0,0,0,0,0,0,0,0,0,0,0,0,0,0,0,0,0,0,0,0,0,0,0,0,0,0,0,0,0,0,0,0,0,0,0,0,0,0,0,0,0,0,0,0,0,0,0,0,0,0,0,0,0,0,0,0,0,0,0,0,0,0,0,0,0,0,0,0,0,0,0,0,0,0,0,0,0,0,0,0,0,0,0,0,0,0,0,0,0,0,0,0,0,0,0,0,0,0,0,0,0,0],"id":10,"left_children":[1,3,5,7,9,11,13,15,17,19,21,23,25,27,29,31,33,35,37,39,41,43,45,47,49,51,53,55,57,59,61,63,65,-1,67,69,71,73,75,77,79,81,83,85,87,89,91,93,95,97,99,101,103,105,107,109,111,113,115,117,119,121,123,-1,-1,-1,-1,-1,-1,-1,-1,-1,-1,-1,-1,-1,-1,-1,-1,-1,-1,-1,-1,-1,-1,-1,-1,-1,-1,-1,-1,-1,-1,-1,-1,-1,-1,-1,-1,-1,-1,-1,-1,-1,-1,-1,-1,-1,-1,-1,-1,-1,-1,-1,-1,-1,-1,-1,-1,-1,-1,-1,-1,-1,-1],"loss_changes":[2.0905625E3,2.74375E2,1.16515625E2,5.4E1,2.3671484E2,6.085742E1,1.4765991E1,9.625E0,6.268219E0,6.2128906E1,4.4212402E1,4.061621E1,3.128125E1,6.3148193E0,4.1973877E0,8.5625E0,6.761484E-1,4.0397034E0,5.273895E-1,1.49140625E1,2.3516602E1,2.4253906E1,4.199173E0,1.7826172E1,1.0267822E1,1.7805664E1,5.7243347E0,2.2478104E0,2.9484863E0,3.4128723E0,7.39859E0,1.25E-1,2.4523193E1,0E0,6.6315365E-1,3.6317139E0,1.0382564E0,1.6896267E0,4.7358704E-1,5.2578125E0,3.2191365E0,1.26875E1,2.7865868E0,8.884033E0,1.1385986E1,2.0041227E0,4.113434E0,4.67807E0,1.4938477E1,7.197632E0,1.6478081E0,2.3566742E0,1.1447266E1,1.5176086E0,3.4453926E0,2.2812958E0,1.3274765E0,4.831604E0,2.8046875E0,1.047718E0,3.6508713E0,3.6644592E0,1.9657593E0,0E0,0E0,0E0,0E0,0E0,0E0,0E0,0E0,0E0,0E0,0E0,0E0,0E0,0E0,0E0,0E0,0E0,0E0,0E0,0E0,0E0,0E0,0E0,0E0,0E0,0E0,0E0,0E0,0E0,0E0,0E0,0E0,0E0,0E0,0E0,0E0,0E0,0E0,0E0,0E0,0E0,0E0,0E0,0E0,0E0,0E0,0E0,0E0,0E0,0E0,0E0,0E0,0E0,0E0,0E0,0E0,0E0,0E0,0E0,0E0,0E0,0E0],"parents":[2147483647,0,0,1,1,2,2,3,3,4,4,5,5,6,6,7,7,8,8,9,9,10,10,11,11,12,12,13,13,14,14,15,15,16,16,17,17,18,18,19,19,20,20,21,21,22,22,23,23,24,24,25,25,26,26,27,27,28,28,29,29,30,30,31,31,32,32,34,34,35,35,36,36,37,37,38,38,39,39,40,40,41,41,42,42,43,43,44,44,45,45,46,46,47,47,48,48,49,49,50,50,51,51,52,52,53,53,54,54,55,55,56,56,57,57,58,58,59,59,60,60,61,61,62,62],"right_children":[2,4,6,8,10,12,14,16,18,20,22,24,26,28,30,32,34,36,38,40,42,44,46,48,50,52,54,56,58,60,62,64,66,-1,68,70,72,74,76,78,80,82,84,86,88,90,92,94,96,98,100,102,104,106,108,110,112,114,116,118,120,122,124,-1,-1,-1,-1,-1,-1,-1,-1,-1,-1,-1,-1,-1,-1,-1,-1,-1,-1,-1,-1,-1,-1,-1,-1,-1,-1,-1,-1,-1,-1,-1,-1,-1,-1,-1,-1,-1,-1,-1,-1,-1,-1,-1,-1,-1,-1,-1,-1,-1,-1,-1,-1,-1,-1,-1,-1,-1,-1,-1,-1,-1,-1],"split_conditions":[3.25E2,4.8E1,4.99E2,3.73E2,2.88E2,3.78E2,5.65E2,3.83E2,4.27E2,2.26E2,4.03E2,3.98E2,5.12E2,4.7E2,3.75E2,4.8E1,4.8E1,4.54E2,4.43E2,3.12E2,3.36E2,3.36E2,3.44E2,3.03E2,5.12E2,2.93E2,5.94E2,4.15E2,5.12E2,1.97E2,5.94E2,1.6E2,2.08E2,6.774884E-2,3.54E2,2.9E2,5.3E2,3.2E2,4.61E2,2.26E2,1.24E2,2.06E2,3.69E2,3.52E2,4.82E2,4.05E2,4.39E2,3.51E2,3.85E2,3.57E2,3.96E2,4.63E2,4.99E2,4.58E2,4.37E2,3.34E2,5.12E2,5.23E2,5.23E2,4.19E2,2.03E2,5.17E2,5.38E2,-1.5651119E-1,-1.18543655E-1,-1.7412932E-1,-1.4559443E-1,-9.30296E-2,-4.4497166E-2,-1.02893904E-1,-1.4262405E-1,-4.7552E-2,-1.438941E-1,-6.315216E-2,-1.1673395E-1,-1.1426579E-1,-9.659799E-2,-1.7438631E-1,-1.6452417E-1,2.882405E-1,-3.76074E-2,-1.3682435E-1,-1.6085829E-1,-9.7527765E-2,-3.2652546E-2,-1.5450181E-1,-1.0823845E-1,-1.356E-1,-5.1183846E-2,-4.6894412E-2,8.758775E-2,-1.0938989E-1,-7.835992E-2,-1.21988736E-1,-9.434358E-2,-1.409576E-1,-1.1212487E-1,-7.812759E-2,-1.177991E-1,-1.3749023E-1,-5.4941375E-2,-9.825071E-2,-7.015202E-2,-1.21833496E-1,-1.05913624E-1,-7.524887E-2,-9.984454E-2,-4.0315516E-2,-8.6506024E-2,-1.1209758E-1,-6.64192E-2,-9.226051E-2,-1.3770375E-1,-1.1594772E-1,-9.4493255E-2,-9.594401E-2,-1.0810839E-1,-9.812033E-2,-5.600613E-2,2.3717944E-1,-5.156253E-2,-8.131704E-2,-1.06033385E-1,2.6157446E-2,-7.0861E-2],"split_indices":[3,3,3,0,0,3,3,2,0,3,1,1,1,2,0,0,1,1,0,1,2,0,0,2,1,1,1,1,2,0,0,2,0,0,0,1,1,2,0,0,3,2,1,1,0,2,1,3,2,2,0,3,0,2,3,2,0,3,0,1,0,1,2,0,0,0,0,0,0,0,0,0,0,0,0,0,0,0,0,0,0,0,0,0,0,0,0,0,0,0,0,0,0,0,0,0,0,0,0,0,0,0,0,0,0,0,0,0,0,0,0,0,0,0,0,0,0,0,0,0,0,0,0,0,0],"split_type":[0,0,0,0,0,0,0,0,0,0,0,0,0,0,0,0,0,0,0,0,0,0,0,0,0,0,0,0,0,0,0,0,0,0,0,0,0,0,0,0,0,0,0,0,0,0,0,0,0,0,0,0,0,0,0,0,0,0,0,0,0,0,0,0,0,0,0,0,0,0,0,0,0,0,0,0,0,0,0,0,0,0,0,0,0,0,0,0,0,0,0,0,0,0,0,0,0,0,0,0,0,0,0,0,0,0,0,0,0,0,0,0,0,0,0,0,0,0,0,0,0,0,0,0,0],"sum_hessian":[2.315746E6,2.1725568E6,1.4318919E5,1.9648395E6,2.077173E5,1.2464744E5,1.8541756E4,1.9623598E6,2.4796943E3,1.8054773E5,2.7169555E4,4.170441E4,8.294303E4,1.390358E4,4.6381753E3,1.9622179E6,1.4188683E2,1.2118778E3,1.2678165E3,1.582124E5,2.2335328E4,2.548236E4,1.6871947E3,3.4033613E4,7.670797E3,7.8675375E4,4.2676553E3,1.4331522E3,1.2470429E4,8.6539453E2,3.772781E3,1.9499115E6,1.2306431E4,2.1132803E0,1.3977354E2,1.1297424E3,8.213534E1,2.3637157E2,1.031445E3,1.5815353E5,5.887403E1,2.1917748E4,4.1758038E2,1.4231656E4,1.1250704E4,4.2742573E1,1.6444521E3,2.8216365E3,3.1211975E4,7.339818E3,3.3097888E2,2.3824993E3,7.6292875E4,3.672228E3,5.9542737E2,8.090493E2,6.241029E2,5.186624E3,7.283804E3,3.2290225E2,5.424923E2,2.4414548E3,1.3313262E3,1.9498894E6,2.2090715E1,8.178482E3,4.1279487E3,1.0223102E2,3.754253E1,2.941138E2,8.3562866E2,7.0864586E1,1.1270752E1,1.4993327E2,8.643829E1,2.1142206E2,8.200229E2,1.5279602E5,5.357519E3,1.8685968E0,5.7005432E1,2.250509E3,1.9667238E4,3.4396094E2,7.361943E1,1.3837117E4,3.9453915E2,1.1103409E4,1.4729535E2,2.8735847E1,1.4006725E1,9.911618E2,6.5329034E2,2.0348573E3,7.8677905E2,2.9475592E4,1.7363832E3,4.463092E2,6.893509E3,2.3045788E1,3.0793307E2,2.0595488E3,3.229505E2,7.1920836E4,4.3720337E3,2.5909995E2,3.413128E3,2.6339865E2,3.3202872E2,1.1718634E2,6.91863E2,5.5474445E2,6.935848E1,3.8936292E3,1.292995E3,4.2243115E3,3.0594927E3,2.4908731E2,7.3814926E1,2.9998722E0,5.3949243E2,8.5258026E2,1.5888745E3,1.8596497E1,1.3127296E3],"tree_param":{"num_deleted":"0","num_feature":"4","num_nodes":"125","size_leaf_vector":"1"}},{"base_weights":[-5.7532704E-1,-5.7624984E-1,-5.486427E-1,-5.754615E-1,-5.8194923E-1,-5.561281E-1,-5.205081E-1,-5.755304E-1,-5.5005217E-1,-5.8401847E-1,-5.696012E-1,-5.5889344E-1,-5.389714E-1,-5.160275E-1,-1.7413941E-1,-5.7553136E-1,-3.5017776E-1,-5.383643E-1,-5.558451E-1,-1.7552392E-1,-5.75796E-1,-5.5070335E-1,-5.7080805E-1,-1.6924432E-1,-5.575662E-1,-5.345434E-1,-5.6528455E-1,-5.3147376E-1,-4.901717E-1,-1.7265037E-1,-5.8278704E-1,5.887919E-2,-1.5640941E-1,-1.6272573E-1,-4.6884176E-1,-1.6695899E-1,-4.026081E-1,-5.7583123E-1,1.8103316E-2,-1.6938162E-1,-1.6111688E-1,-1.7281565E-1,-5.6605583E-1,5.5243228E-2,-5.575896E-1,-1.659537E-1,-5.2954453E-1,-4.8128042E-1,-1.725784E-1,-5.378149E-1,-5.165661E-1,-4.8246786E-1,-5.29326E-1,-1.7498547E-1,-1.2245564E-1,3.131789E-2,-1.5074062E-1,2.8637651E-2,-1.3349578E-1,-1.7348576E-1,-1.7108732E-1,-2.4478193E-3,-1.6983102E-1,-1.6610721E-1,-1.6806233E-1,-1.6092439E-1,-1.556526E-1,-1.3034055E-1,-1.5935549E-1,-1.6229703E-1,-1.5573011E-1,-1.5789792E-1,-1.4849281E-1,-1.4906885E-1,-1.4055237E-1,-3.2620523E-2,-1.590653E-1],"categories":[],"categories_nodes":[],"categories_segments":[],"categories_sizes":[],"default_left":[0,0,0,0,0,0,0,0,0,0,0,0,0,0,0,0,0,0,0,0,0,0,0,0,0,0,0,0,0,0,0,0,0,0,0,0,0,0,0,0,0,0,0,0,0,0,0,0,0,0,0,0,0,0,0,0,0,0,0,0,0,0,0,0,0,0,0,0,0,0,0,0,0,0,0,0,0],"id":11,"left_children":[1,3,5,7,9,11,13,15,17,19,21,23,25,27,-1,29,31,33,35,-1,37,39,41,-1,43,45,47,49,51,-1,53,-1,-1,-1,55,-1,57,59,-1,-1,-1,-1,61,-1,63,-1,65,67,-1,69,71,73,75,-1,-1,-1,-1,-1,-1,-1,-1,-1,-1,-1,-1,-1,-1,-1,-1,-1,-1,-1,-1,-1,-1,-1,-1],"loss_changes":[5.54375E1,9.5625E0,1.565625E1,3E0,6.453125E0,2.5351562E0,3.979004E0,2.5E-1,5.456543E-2,1.6484375E0,5.576172E-1,4.4921875E-2,6.682129E-1,5.661621E0,0E0,6.25E-2,1.095057E0,2.4285889E-1,1.394043E-1,0E0,6.1816406E-1,1.3726807E-1,5.683594E-1,0E0,8.173828E-1,3.7268066E-1,7.1380615E-1,5.986328E-1,1.4212646E0,0E0,4.4555664E-1,0E0,0E0,0E0,2.068081E0,0E0,4.4405818E-1,2.5390625E-2,0E0,0E0,0E0,0E0,4.9658203E-1,0E0,1.0839844E-1,0E0,1.3781738E-1,7.6675415E-2,0E0,1.0437012E-1,3.2781982E-1,7.050781E-1,2.8118896E-1,0E0,0E0,0E0,0E0,0E0,0E0,0E0,0E0,0E0,0E0,0E0,0E0,0E0,0E0,0E0,0E0,0E0,0E0,0E0,0E0,0E0,0E0,0E0,0E0],"parents":[2147483647,0,0,1,1,2,2,3,3,4,4,5,5,6,6,7,7,8,8,9,9,10,10,11,11,12,12,13,13,15,15,16,16,17,17,18,18,20,20,21,21,22,22,24,24,25,25,26,26,27,27,28,28,30,30,34,34,36,36,37,37,42,42,44,44,46,46,47,47,49,49,50,50,51,51,52,52],"right_children":[2,4,6,8,10,12,14,16,18,20,22,24,26,28,-1,30,32,34,36,-1,38,40,42,-1,44,46,48,50,52,-1,54,-1,-1,-1,56,-1,58,60,-1,-1,-1,-1,62,-1,64,-1,66,68,-1,70,72,74,76,-1,-1,-1,-1,-1,-1,-1,-1,-1,-1,-1,-1,-1,-1,-1,-1,-1,-1,-1,-1,-1,-1,-1,-1],"split_conditions":[4.03E2,4.8E1,4.96E2,1.84E2,3.66E2,4.99E2,7.02E2,3.92E2,2.82E2,3.28E2,4.8E1,3.75E2,5.94E2,5.23E2,-1.7413941E-1,4.8E1,4.13E2,2.72E2,5.49E2,-1.7552392E-1,5.94E2,4.25E2,3.63E2,-1.6924432E-1,4.8E1,4.03E2,4.8E1,4.99E2,5.94E2,-1.7265037E-1,2.08E2,5.887919E-2,-1.5640941E-1,-1.6272573E-1,2.11E2,-1.6695899E-1,3.56E2,3.71E2,1.8103316E-2,-1.6938162E-1,-1.6111688E-1,-1.7281565E-1,1.46E2,5.5243228E-2,4.35E2,-1.659537E-1,5.23E2,7.02E2,-1.725784E-1,5.3E2,5.3E2,5.38E2,4.05E2,-1.7498547E-1,-1.2245564E-1,3.131789E-2,-1.5074062E-1,2.8637651E-2,-1.3349578E-1,-1.7348576E-1,-1.7108732E-1,-2.4478193E-3,-1.6983102E-1,-1.6610721E-1,-1.6806233E-1,-1.6092439E-1,-1.556526E-1,-1.3034055E-1,-1.5935549E-1,-1.6229703E-1,-1.5573011E-1,-1.5789792E-1,-1.4849281E-1,-1.4906885E-1,-1.4055237E-1,-3.2620523E-2,-1.590653E-1],"split_indices":[0,3,3,0,3,0,2,1,0,0,0,3,0,1,0,0,1,2,2,0,1,3,0,0,1,3,2,0,2,0,2,0,0,0,1,0,1,0,0,0,0,0,2,0,2,0,0,0,0,2,3,0,0,0,0,0,0,0,0,0,0,0,0,0,0,0,0,0,0,0,0,0,0,0,0,0,0],"split_type":[0,0,0,0,0,0,0,0,0,0,0,0,0,0,0,0,0,0,0,0,0,0,0,0,0,0,0,0,0,0,0,0,0,0,0,0,0,0,0,0,0,0,0,0,0,0,0,0,0,0,0,0,0,0,0,0,0,0,0,0,0,0,0,0,0,0,0,0,0,0,0,0,0,0,0,0,0],"sum_hessian":[2.2645702E6,2.188856E6,7.571421E4,1.9229735E6,2.658825E5,5.978835E4,1.5925863E4,1.9177484E6,5.225077E3,2.2768252E5,3.8199992E4,5.146203E4,8.326317E3,1.4827409E4,1.0984543E3,1.9177388E6,9.612494E0,1.762657E3,3.4624204E3,2.0159248E5,2.609003E4,2.320627E3,3.5879363E4,1.0292216E4,4.1169816E4,7.145211E3,1.1811066E3,9.269973E3,5.5574365E3,1.909877E6,7.8617524E3,2.2580712E0,7.3544235E0,1.6590912E3,1.03565796E2,3.4443945E3,1.8025951E1,2.6088682E4,1.3482552E0,1.129577E3,1.1910499E3,1.6999965E4,1.88794E4,1.0509772E0,4.1168766E4,1.4880685E3,5.6571426E3,1.306104E2,1.0504962E3,6.47899E3,2.7909824E3,4.6548843E3,9.025522E2,7.837066E3,2.4686104E1,5.6221004E0,9.7943695E1,1.3152485E0,1.6710703E1,1.8007213E4,8.081468E3,1.6253622E0,1.8877775E4,1.6624232E4,2.4544535E4,3.415547E3,2.2415955E3,7.240157E1,5.820883E1,5.51534E3,9.636503E2,1.9059675E3,8.8501495E2,2.2720325E3,2.3828516E3,2.169376E0,9.003828E2],"tree_param":{"num_deleted":"0","num_feature":"4","num_nodes":"77","size_leaf_vector":"1"}},{"base_weights":[7.1610874E-1,7.197048E-1,6.537715E-1,7.176213E-1,7.381757E-1,6.618398E-1,6.0389584E-1,7.177855E-1,6.6886014E-1,7.4645054E-1,6.980308E-1,6.656551E-1,6.129582E-1,6.164322E-1,5.912215E-1,7.176568E-1,7.478967E-1,6.8263984E-1,6.060186E-1,7.491585E-1,7.101691E-1,7.1046585E-1,6.6700184E-1,6.78872E-1,6.5736103E-1,6.270119E-1,5.89343E-1,6.199952E-1,5.643306E-1,5.714718E-1,5.9407353E-1,2.1529737E-1,4.6463203E-1,7.487506E-1,6.558901E-1,6.86728E-1,6.094325E-1,6.222245E-1,5.748806E-1,7.4930924E-1,5.690873E-1,7.129977E-1,5.9100026E-1,7.143538E-1,6.519116E-1,6.7691076E-1,6.2676156E-1,6.8896276E-1,6.599442E-1,5.979734E-1,6.586251E-1,6.16647E-1,6.415075E-1,-6.464602E-2,5.8977044E-1,5.909154E-1,6.24644E-1,2.2262661E-1,5.587525E-1,5.734993E-1,4.1008955E-1,6.542123E-1,5.9256464E-1,-2.1510078E-1,1.8495016E-1,2.2472219E-1,1.637978E-1,1.8193958E-3,1.9861172E-1,2.068149E-1,1.8278202E-1,1.6751862E-1,1.929317E-1,1.7834911E-1,1.9663924E-1,1.4196207E-1,1.7776749E-1,2.2550032E-1,2.2273235E-1,-1.3128711E-1,1.7423494E-1,2.0660917E-1,2.1686068E-1,-1.0723025E-1,1.78272E-1,2.0153521E-1,2.1539642E-1,1.8287483E-1,2.003516E-1,2.0390303E-1,1.6415855E-1,1.897699E-1,1.5446237E-1,2.0818356E-1,1.8432346E-1,1.818492E-1,1.9960134E-1,1.8400802E-1,1.6143844E-1,1.9800815E-1,1.8254691E-1,1.919763E-1,1.8174043E-1,1.0667121E-1,1.9269775E-1,1.873269E-1,1.750776E-1,1.831893E-1,1.7251235E-1,1.8982641E-1,1.8228582E-1,-2.2040734E-2,1.6822472E-1,1.7717516E-1,1.6717336E-1,5.311658E-2,1.5848525E-1,1.6115624E-1,2.0552616E-1,1.793905E-1,1.7483786E-1],"categories":[],"categories_nodes":[],"categories_segments":[],"categories_sizes":[],"default_left":[0,0,0,0,0,0,0,0,0,0,0,0,0,0,0,0,0,0,0,0,0,0,0,0,0,0,0,0,0,0,0,0,0,0,0,0,0,0,0,0,0,0,0,0,0,0,0,0,0,0,0,0,0,0,0,0,0,0,0,0,0,0,0,0,0,0,0,0,0,0,0,0,0,0,0,0,0,0,0,0,0,0,0,0,0,0,0,0,0,0,0,0,0,0,0,0,0,0,0,0,0,0,0,0,0,0,0,0,0,0,0,0,0,0,0,0,0,0,0,0,0],"id":12,"left_children":[1,3,5,7,9,11,13,15,17,19,21,23,25,27,29,31,33,35,37,39,41,43,45,47,49,51,53,55,57,59,61,-1,63,65,67,69,71,73,75,77,79,81,83,85,87,89,91,93,95,97,99,101,103,-1,105,107,109,-1,111,113,115,117,119,-1,-1,-1,-1,-1,-1,-1,-1,-1,-1,-1,-1,-1,-1,-1,-1,-1,-1,-1,-1,-1,-1,-1,-1,-1,-1,-1,-1,-1,-1,-1,-1,-1,-1,-1,-1,-1,-1,-1,-1,-1,-1,-1,-1,-1,-1,-1,-1,-1,-1,-1,-1,-1,-1,-1,-1,-1,-1],"loss_changes":[9.0875E2,1.46875E2,8.8625E1,2.725E1,1.2864062E2,3.5109375E1,4.53125E0,1.275E1,9.608887E0,3.1125E1,2.5158203E1,1.8921875E1,4.209961E0,2.522461E0,5.2490234E-1,6.25E-1,6.557617E-1,2.4208984E0,6.972046E-1,7.703125E0,7.1289062E0,1.0330078E1,7.1621094E0,1.2546875E1,7.7539062E0,9.020996E-1,1.9038086E0,1.5864258E0,5.7821655E-1,4.0716553E-1,8.2714844E-1,0E0,3.5809271E0,5.385742E-1,5.64373E-1,1.425293E0,5.183258E-1,8.66333E-1,1.0293732E0,4.28125E0,3.2558975E0,4.75E0,1.8261871E0,6.3964844E0,1.5910645E0,5.100586E0,2.1246338E0,1.605664E1,6.470703E0,1.7632446E0,7.0742188E0,8.897705E-1,6.081543E-1,0E0,7.408447E-1,2.788086E-1,1.3359375E0,0E0,1.2718506E0,2.0855713E-1,6.7401123E-1,7.8108215E-1,3.4228516E-1,0E0,0E0,0E0,0E0,0E0,0E0,0E0,0E0,0E0,0E0,0E0,0E0,0E0,0E0,0E0,0E0,0E0,0E0,0E0,0E0,0E0,0E0,0E0,0E0,0E0,0E0,0E0,0E0,0E0,0E0,0E0,0E0,0E0,0E0,0E0,0E0,0E0,0E0,0E0,0E0,0E0,0E0,0E0,0E0,0E0,0E0,0E0,0E0,0E0,0E0,0E0,0E0,0E0,0E0,0E0,0E0,0E0,0E0],"parents":[2147483647,0,0,1,1,2,2,3,3,4,4,5,5,6,6,7,7,8,8,9,9,10,10,11,11,12,12,13,13,14,14,15,15,16,16,17,17,18,18,19,19,20,20,21,21,22,22,23,23,24,24,25,25,26,26,27,27,28,28,29,29,30,30,32,32,33,33,34,34,35,35,36,36,37,37,38,38,39,39,40,40,41,41,42,42,43,43,44,44,45,45,46,46,47,47,48,48,49,49,50,50,51,51,52,52,54,54,55,55,56,56,58,58,59,59,60,60,61,61,62,62],"right_children":[2,4,6,8,10,12,14,16,18,20,22,24,26,28,30,32,34,36,38,40,42,44,46,48,50,52,54,56,58,60,62,-1,64,66,68,70,72,74,76,78,80,82,84,86,88,90,92,94,96,98,100,102,104,-1,106,108,110,-1,112,114,116,118,120,-1,-1,-1,-1,-1,-1,-1,-1,-1,-1,-1,-1,-1,-1,-1,-1,-1,-1,-1,-1,-1,-1,-1,-1,-1,-1,-1,-1,-1,-1,-1,-1,-1,-1,-1,-1,-1,-1,-1,-1,-1,-1,-1,-1,-1,-1,-1,-1,-1,-1,-1,-1,-1,-1,-1,-1,-1,-1],"split_conditions":[3.42E2,4.8E1,4.99E2,2.08E2,2.85E2,4.99E2,5.3E2,4.8E1,4.27E2,2.66E2,3.65E2,3.92E2,5.3E2,5.49E2,3.75E2,3.9E2,1.89E2,3.83E2,4.7E2,3.12E2,3.34E2,3.59E2,4.09E2,3.87E2,1.2E2,4.82E2,4.8E1,4.72E2,4.21E2,3.73E2,3.94E2,2.1529737E-1,4.05E2,2.52E2,8.3E1,4.05E2,3.9E2,3.68E2,4.87E2,1.71E2,1.24E2,2.3E2,2.33E2,2.7E2,3.03E2,4.79E2,7.02E2,3.98E2,3.5E2,4.63E2,5.03E2,4.19E2,4.67E2,-6.464602E-2,4.87E2,5.07E2,5.17E2,2.2262661E-1,4.33E2,3.52E2,4.01E2,4.67E2,5.49E2,-2.1510078E-1,1.8495016E-1,2.2472219E-1,1.637978E-1,1.8193958E-3,1.9861172E-1,2.068149E-1,1.8278202E-1,1.6751862E-1,1.929317E-1,1.7834911E-1,1.9663924E-1,1.4196207E-1,1.7776749E-1,2.2550032E-1,2.2273235E-1,-1.3128711E-1,1.7423494E-1,2.0660917E-1,2.1686068E-1,-1.0723025E-1,1.78272E-1,2.0153521E-1,2.1539642E-1,1.8287483E-1,2.003516E-1,2.0390303E-1,1.6415855E-1,1.897699E-1,1.5446237E-1,2.0818356E-1,1.8432346E-1,1.818492E-1,1.9960134E-1,1.8400802E-1,1.6143844E-1,1.9800815E-1,1.8254691E-1,1.919763E-1,1.8174043E-1,1.0667121E-1,1.9269775E-1,1.873269E-1,1.750776E-1,1.831893E-1,1.7251235E-1,1.8982641E-1,1.8228582E-1,-2.2040734E-2,1.6822472E-1,1.7717516E-1,1.6717336E-1,5.311658E-2,1.5848525E-1,1.6115624E-1,2.0552616E-1,1.793905E-1,1.7483786E-1],"split_indices":[3,3,3,0,0,0,3,0,0,3,0,3,0,2,0,2,2,2,1,1,1,1,1,0,0,2,2,2,1,0,0,0,2,1,1,1,1,1,1,3,3,1,2,1,3,0,0,2,2,3,2,3,1,0,1,3,2,0,1,1,1,2,0,0,0,0,0,0,0,0,0,0,0,0,0,0,0,0,0,0,0,0,0,0,0,0,0,0,0,0,0,0,0,0,0,0,0,0,0,0,0,0,0,0,0,0,0,0,0,0,0,0,0,0,0,0,0,0,0,0,0],"split_type":[0,0,0,0,0,0,0,0,0,0,0,0,0,0,0,0,0,0,0,0,0,0,0,0,0,0,0,0,0,0,0,0,0,0,0,0,0,0,0,0,0,0,0,0,0,0,0,0,0,0,0,0,0,0,0,0,0,0,0,0,0,0,0,0,0,0,0,0,0,0,0,0,0,0,0,0,0,0,0,0,0,0,0,0,0,0,0,0,0,0,0,0,0,0,0,0,0,0,0,0,0,0,0,0,0,0,0,0,0,0,0,0,0,0,0,0,0,0,0,0,0],"sum_hessian":[4.05632E6,3.8350775E6,2.2124252E5,3.4463815E6,3.8869606E5,1.9042556E5,3.0816957E4,3.4348078E6,1.1573665E4,3.222538E5,6.644222E4,1.7662694E5,1.3798617E4,1.5468875E4,1.5348082E4,3.420217E6,1.4590702E4,9.484143E3,2.0895225E3,2.9985397E5,2.2399844E4,4.741755E4,1.9024674E4,6.807113E4,1.08555805E5,8.634534E3,5.1640835E3,1.446854E4,1.00033527E3,1.9621044E3,1.3385978E4,3.4202005E6,1.6491455E1,1.4449452E4,1.4124982E2,8.97459E3,5.0955258E2,1.3617906E3,7.277318E2,2.9960003E5,2.5394003E2,2.1875623E4,5.242218E2,4.445462E4,2.9629268E3,1.5252914E4,3.7717588E3,4.437729E4,2.3693848E4,2.2723672E3,1.0628344E5,5.0599907E3,3.5745435E3,2.4740033E0,5.1616094E3,2.0118552E3,1.2456685E4,2.6418432E1,9.739168E2,1.9352375E3,2.6866816E1,3.1703735E2,1.306894E4,1.4543637E0,1.5037092E1,1.4423758E4,2.5694317E1,1.3426607E0,1.3990717E2,8.66952E3,3.0507092E2,2.0954126E2,3.0001132E2,7.5275226E2,6.090383E2,1.1190061E2,6.1583124E2,2.2293706E5,7.6662984E4,2.4981139E0,2.5144191E2,6.339694E3,1.5535929E4,1.4123573E0,5.2280945E2,3.5112385E3,4.0943383E4,8.207939E2,2.142133E3,1.4930305E4,3.2261005E2,3.5813071E3,1.9045161E2,4.1589473E4,2.7878145E3,2.1700005E3,2.1523846E4,1.8002579E3,4.7210934E2,1.0338031E5,2.9031257E3,1.5899854E3,3.4700054E3,1.1443679E1,3.5630996E3,7.6589667E2,4.395713E3,8.806395E2,1.1312157E3,8.412666E3,4.0440186E3,2.9533603E0,9.7096344E2,9.2631085E2,1.00892676E3,9.881765E0,1.698505E1,7.002414E1,2.4701323E2,8.376607E3,4.692333E3],"tree_param":{"num_deleted":"0","num_feature":"4","num_nodes":"121","size_leaf_vector":"1"}},{"base_weights":[-5.55998E-1,-5.562802E-1,-5.299414E-1,-5.5563945E-1,-5.601818E-1,-4.781817E-1,-5.312804E-1,-5.5564576E-1,-3.955904E-1,-1.6872403E-1,-5.5232376E-1,-1.5854913E-1,-4.4332063E-1,-5.487464E-1,-5.266198E-1,-1.6669571E-1,-5.001824E-1,-1.2872744E-1,-2.3031661E-1,-5.539686E-1,-5.3428304E-1,3.766139E-2,-4.5096976E-1,-1.655252E-1,-5.13674E-1,-5.360479E-1,-5.2188045E-1,-2.236064E-1,-5.040511E-1,-2.3214009E-2,-7.5790375E-2,-1.6735728E-1,-1.6567735E-1,-1.6433023E-1,-5.2412367E-1,-1.06080234E-1,2.7961195E-1,-4.677919E-1,-3.458799E-1,-5.1988107E-1,-3.8751385E-1,-1.6222596E-1,-5.159573E-1,-4.988222E-1,-5.235085E-1,6.155432E-2,-1.2229305E-1,-1.650846E-1,-1.4008577E-1,-1.1163079E-1,-1.573981E-1,1.3476714E-2,1.1860244E-1,-1.5825488E-1,-1.3411286E-1,1.0583258E-1,-1.14295736E-1,-1.392759E-1,-1.6302052E-1,-1.5592913E-1,-5.260492E-2,-1.4637837E-1,-1.578866E-1,-1.5024492E-1,-9.336137E-2,-1.5844736E-1,-1.5502658E-1],"categories":[],"categories_nodes":[],"categories_segments":[],"categories_sizes":[],"default_left":[0,0,0,0,0,0,0,0,0,0,0,0,0,0,0,0,0,0,0,0,0,0,0,0,0,0,0,0,0,0,0,0,0,0,0,0,0,0,0,0,0,0,0,0,0,0,0,0,0,0,0,0,0,0,0,0,0,0,0,0,0,0,0,0,0,0,0],"id":13,"left_children":[1,3,5,7,9,11,13,15,17,-1,19,-1,21,23,25,-1,27,-1,29,31,33,35,37,-1,39,41,43,45,47,-1,-1,-1,-1,-1,49,-1,51,53,55,57,59,-1,61,63,65,-1,-1,-1,-1,-1,-1,-1,-1,-1,-1,-1,-1,-1,-1,-1,-1,-1,-1,-1,-1,-1,-1],"loss_changes":[1.29375E1,4.125E0,1.0898438E0,1.34375E0,4.1171875E0,6.4084625E-1,1.2485352E0,3.125E-1,2.5678253E-1,0E0,1.359375E0,0E0,1.1241188E0,1.3342285E-1,3.876953E-1,0E0,9.370041E-2,0E0,2.476579E-2,3.3203125E-2,3.5583496E-1,6.3219047E-1,3.6200333E-1,0E0,5.4244995E-2,1.8981934E-1,1.1352539E-1,4.3548018E-1,6.798935E-2,0E0,0E0,0E0,0E0,0E0,2.4963379E-2,0E0,9.195468E-2,7.71637E-2,1.2312822E0,1.5110779E-1,4.4870472E-1,0E0,2.2033691E-2,9.82666E-2,1.9042969E-2,0E0,0E0,0E0,0E0,0E0,0E0,0E0,0E0,0E0,0E0,0E0,0E0,0E0,0E0,0E0,0E0,0E0,0E0,0E0,0E0,0E0,0E0],"parents":[2147483647,0,0,1,1,2,2,3,3,4,4,5,5,6,6,7,7,8,8,10,10,12,12,13,13,14,14,16,16,18,18,19,19,20,20,21,21,22,22,24,24,25,25,26,26,27,27,28,28,34,34,36,36,37,37,38,38,39,39,40,40,42,42,43,43,44,44],"right_children":[2,4,6,8,10,12,14,16,18,-1,20,-1,22,24,26,-1,28,-1,30,32,34,36,38,-1,40,42,44,46,48,-1,-1,-1,-1,-1,50,-1,52,54,56,58,60,-1,62,64,66,-1,-1,-1,-1,-1,-1,-1,-1,-1,-1,-1,-1,-1,-1,-1,-1,-1,-1,-1,-1,-1,-1],"split_conditions":[4.84E2,4.8E1,4.8E1,7.02E2,3.8E2,4.37E2,4.41E2,5.17E2,5.65E2,-1.6872403E-1,5.03E2,-1.5854913E-1,4.41E2,5.94E2,5.03E2,-1.6669571E-1,2.7E2,-1.2872744E-1,7.02E2,3.85E2,4.31E2,4.96E2,7.03E2,-1.655252E-1,4.35E2,5.17E2,4.65E2,5.38E2,5.17E2,-2.3214009E-2,-7.5790375E-2,-1.6735728E-1,-1.6567735E-1,-1.6433023E-1,4.03E2,-1.06080234E-1,5.49E2,5.07E2,5.94E2,4.67E2,7.02E2,-1.6222596E-1,4.9E2,5.65E2,5.3E2,6.155432E-2,-1.2229305E-1,-1.650846E-1,-1.4008577E-1,-1.1163079E-1,-1.573981E-1,1.3476714E-2,1.1860244E-1,-1.5825488E-1,-1.3411286E-1,1.0583258E-1,-1.14295736E-1,-1.392759E-1,-1.6302052E-1,-1.5592913E-1,-5.260492E-2,-1.4637837E-1,-1.578866E-1,-1.5024492E-1,-9.336137E-2,-1.5844736E-1,-1.5502658E-1],"split_indices":[3,3,0,0,0,2,0,1,2,0,0,0,2,2,3,0,0,0,2,3,3,3,1,0,0,0,1,1,0,0,0,0,0,0,1,0,3,3,2,1,2,0,3,2,0,0,0,0,0,0,0,0,0,0,0,0,0,0,0,0,0,0,0,0,0,0,0],"split_type":[0,0,0,0,0,0,0,0,0,0,0,0,0,0,0,0,0,0,0,0,0,0,0,0,0,0,0,0,0,0,0,0,0,0,0,0,0,0,0,0,0,0,0,0,0,0,0,0,0,0,0,0,0,0,0,0,0,0,0,0,0,0,0,0,0,0,0],"sum_hessian":[1.8077635E6,1.7883768E6,1.9386848E4,1.5362358E6,2.5214102E5,4.979217E2,1.8888926E4,1.5361725E6,6.3225906E1,1.9631919E5,5.582182E4,1.9799422E2,2.9992746E2,3.954041E3,1.4934886E4,1.5359805E6,1.9191731E2,5.1242737E1,1.19831705E1,5.1130234E4,4.691584E3,4.6336904E0,2.952938E2,3.6285022E3,3.255388E2,4.958587E3,9.976298E3,3.4585862E0,1.8845874E2,2.0948853E0,9.888286E0,1.5521719E4,3.5608516E4,1.9931633E3,2.6984207E3,1.5942097E0,3.039481E0,2.5157227E2,4.372151E1,3.0729892E2,1.8239864E1,3.9966453E3,9.6194196E2,6.782109E2,9.298087E3,1.004144E0,2.4544423E0,7.77439E1,1.10714836E2,1.1935641E1,2.686485E3,1.4622763E0,1.5772046E0,5.8567375E1,1.930049E2,1.6588665E0,4.2062645E1,9.748285E1,2.0981606E2,1.0342915E1,7.89695E0,2.720604E2,6.898816E2,6.6942615E2,8.784731E0,5.4610903E3,3.836997E3],"tree_param":{"num_deleted":"0","num_feature":"4","num_nodes":"67","size_leaf_vector":"1"}},{"base_weights":[-4.7880614E-1,-4.8802078E-1,-3.453211E-1,-4.8361778E-1,-5.302861E-1,-3.5654572E-1,-2.6397866E-1,-4.8385835E-1,-3.2934767E-1,-5.465482E-1,-4.2606032E-1,-3.920984E-1,-3.394012E-1,-2.7916843E-1,-1.9668123E-1,-4.836553E-1,-5.17084E-1,-3.8103864E-1,-2.6483658E-1,-5.535329E-1,-4.7051165E-1,-4.4829842E-1,-3.3100674E-1,-4.085149E-1,-3.2056618E-1,-3.435094E-1,-2.5258407E-1,-1.6839166E-1,-2.8733143E-1,-2.2463703E-1,-1.6260722E-1,-4.8365778E-1,-6.322824E-2,-5.5609596E-1,-4.3653628E-1,-3.9576015E-1,-1.4998084E-1,-2.4758996E-1,-2.9883733E-1,-5.592633E-1,-5.3576875E-1,-4.7787642E-1,-2.1990402E-1,-4.5410895E-1,-2.2169231E-1,-3.5843548E-1,-1.9249517E-1,-3.225899E-1,-4.1642994E-1,-3.2809484E-1,-1.2268307E-1,-3.471267E-1,-2.559976E-1,-1.9435316E-1,-2.8848916E-1,-1.9942531E-1,-8.112743E-2,-2.565606E-1,-3.006424E-1,-1.3534169E-1,-2.5466207E-1,1.7699249E-1,-1.6429572E-1,-1.4509776E-1,-1.0532555E-1,1.9028841E-1,-6.4217925E-2,-1.6779234E-1,-1.5430635E-1,-1.3257681E-1,-3.8296185E-2,-9.073682E-2,-1.2924363E-1,-2.9541597E-2,-1.3638747E-1,-7.562363E-2,1.1103453E-1,-1.2820524E-1,-7.9277754E-2,-1.6809604E-1,-1.5384118E-1,-1.2976293E-1,-1.6244939E-1,-1.2130788E-1,-1.473071E-1,-7.869206E-2,-8.297413E-3,-1.1203885E-1,-1.3851668E-1,-7.061018E-2,6.9188796E-2,-4.5588043E-2,-1.12306386E-1,-4.7219943E-2,-8.148331E-2,-1.0519434E-1,-7.553024E-2,-1.2877418E-1,-1.09084524E-1,-6.1941475E-2,-1.0128603E-1,-1.4058432E-1,-3.0297434E-2,-8.113356E-2,-1.0519216E-1,-7.982017E-2,-5.388489E-2,-4.679982E-2,-7.5754784E-2,-9.4161145E-2,-7.54325E-2,2.3858198E-3,-6.786344E-2,-3.4609586E-2,8.763786E-2,-8.021653E-2,-4.4657167E-2,-1.619117E-2,-9.060265E-2,-6.1812516E-2,-1.5422799E-2,-3.3508E-2,-8.027284E-2,-7.014551E-2,-4.665278E-2],"categories":[],"categories_nodes":[],"categories_segments":[],"categories_sizes":[],"default_left":[0,0,0,0,0,0,0,0,0,0,0,0,0,0,0,0,0,0,0,0,0,0,0,0,0,0,0,0,0,0,0,0,0,0,0,0,0,0,0,0,0,0,0,0,0,0,0,0,0,0,0,0,0,0,0,0,0,0,0,0,0,0,0,0,0,0,0,0,0,0,0,0,0,0,0,0,0,0,0,0,0,0,0,0,0,0,0,0,0,0,0,0,0,0,0,0,0,0,0,0,0,0,0,0,0,0,0,0,0,0,0,0,0,0,0,0,0,0,0,0,0,0,0,0,0],"id":14,"left_children":[1,3,5,7,9,11,13,15,17,19,21,23,25,27,29,31,33,35,37,39,41,43,45,47,49,51,53,55,57,59,61,63,65,67,69,71,73,75,77,79,81,83,85,87,89,91,93,95,97,99,101,103,105,107,109,111,113,115,117,119,121,-1,123,-1,-1,-1,-1,-1,-1,-1,-1,-1,-1,-1,-1,-1,-1,-1,-1,-1,-1,-1,-1,-1,-1,-1,-1,-1,-1,-1,-1,-1,-1,-1,-1,-1,-1,-1,-1,-1,-1,-1,-1,-1,-1,-1,-1,-1,-1,-1,-1,-1,-1,-1,-1,-1,-1,-1,-1,-1,-1,-1,-1,-1,-1],"loss_changes":[2.3190625E3,3.2796875E2,1.1107422E2,5.9125E1,2.8178906E2,6.5081055E1,1.5041504E1,1.053125E1,8.202118E0,7.618359E1,4.733252E1,4.0737305E1,2.565918E1,1.0844666E1,2.5571976E0,1.59375E0,3.0150879E1,4.6348877E0,5.77446E-1,1.3121094E1,2.2256836E1,2.3864502E1,1.6125488E1,1.911377E1,9.64447E0,2.1730469E1,6.7713013E0,2.2292957E0,4.517639E0,3.9686813E0,1.6609306E0,1.25E-1,1.2328993E0,5.854492E-1,5.2022095E0,4.1107635E0,1.2775984E0,2.1531029E0,1.526928E0,4.6054688E0,1.8793945E1,1.1177002E1,2.8274784E0,1.0722656E1,2.8809261E0,1.1634216E1,1.9195805E0,4.664154E0,1.7384766E1,7.1846313E0,1.7525346E0,1.7739258E1,2.0594177E0,2.7458572E0,1.8185272E0,3.395588E0,2.834993E0,3.918518E0,2.6210938E0,2.231575E0,2.031067E0,0E0,7.142563E-1,0E0,0E0,0E0,0E0,0E0,0E0,0E0,0E0,0E0,0E0,0E0,0E0,0E0,0E0,0E0,0E0,0E0,0E0,0E0,0E0,0E0,0E0,0E0,0E0,0E0,0E0,0E0,0E0,0E0,0E0,0E0,0E0,0E0,0E0,0E0,0E0,0E0,0E0,0E0,0E0,0E0,0E0,0E0,0E0,0E0,0E0,0E0,0E0,0E0,0E0,0E0,0E0,0E0,0E0,0E0,0E0,0E0,0E0,0E0,0E0,0E0,0E0],"parents":[2147483647,0,0,1,1,2,2,3,3,4,4,5,5,6,6,7,7,8,8,9,9,10,10,11,11,12,12,13,13,14,14,15,15,16,16,17,17,18,18,19,19,20,20,21,21,22,22,23,23,24,24,25,25,26,26,27,27,28,28,29,29,30,30,31,31,32,32,33,33,34,34,35,35,36,36,37,37,38,38,39,39,40,40,41,41,42,42,43,43,44,44,45,45,46,46,47,47,48,48,49,49,50,50,51,51,52,52,53,53,54,54,55,55,56,56,57,57,58,58,59,59,60,60,62,62],"right_children":[2,4,6,8,10,12,14,16,18,20,22,24,26,28,30,32,34,36,38,40,42,44,46,48,50,52,54,56,58,60,62,64,66,68,70,72,74,76,78,80,82,84,86,88,90,92,94,96,98,100,102,104,106,108,110,112,114,116,118,120,122,-1,124,-1,-1,-1,-1,-1,-1,-1,-1,-1,-1,-1,-1,-1,-1,-1,-1,-1,-1,-1,-1,-1,-1,-1,-1,-1,-1,-1,-1,-1,-1,-1,-1,-1,-1,-1,-1,-1,-1,-1,-1,-1,-1,-1,-1,-1,-1,-1,-1,-1,-1,-1,-1,-1,-1,-1,-1,-1,-1,-1,-1,-1,-1],"split_conditions":[3.25E2,4.8E1,5.03E2,3.59E2,2.88E2,3.78E2,5.94E2,4.8E1,4.27E2,2.52E2,3.82E2,3.98E2,5.07E2,4.63E2,7.03E2,3.9E2,2.08E2,4.54E2,2.72E2,1.71E2,3.36E2,3.82E2,4.65E2,3.03E2,5.12E2,5.17E2,4.72E2,5.38E2,4.84E2,5.17E2,3.52E2,1.59E2,4.13E2,1.71E2,4.17E2,2.9E2,5.3E2,2.55E2,4.21E2,1.91E2,4.8E1,2.33E2,3.68E2,2.4E2,4.33E2,3.21E2,3.71E2,3.51E2,3.82E2,3.59E2,3.92E2,3.52E2,5.94E2,4.07E2,5.23E2,3.68E2,4.58E2,5.94E2,4.74E2,4.56E2,3.89E2,1.7699249E-1,5.64E2,-1.4509776E-1,-1.0532555E-1,1.9028841E-1,-6.4217925E-2,-1.6779234E-1,-1.5430635E-1,-1.3257681E-1,-3.8296185E-2,-9.073682E-2,-1.2924363E-1,-2.9541597E-2,-1.3638747E-1,-7.562363E-2,1.1103453E-1,-1.2820524E-1,-7.9277754E-2,-1.6809604E-1,-1.5384118E-1,-1.2976293E-1,-1.6244939E-1,-1.2130788E-1,-1.473071E-1,-7.869206E-2,-8.297413E-3,-1.1203885E-1,-1.3851668E-1,-7.061018E-2,6.9188796E-2,-4.5588043E-2,-1.12306386E-1,-4.7219943E-2,-8.148331E-2,-1.0519434E-1,-7.553024E-2,-1.2877418E-1,-1.09084524E-1,-6.1941475E-2,-1.0128603E-1,-1.4058432E-1,-3.0297434E-2,-8.113356E-2,-1.0519216E-1,-7.982017E-2,-5.388489E-2,-4.679982E-2,-7.5754784E-2,-9.4161145E-2,-7.54325E-2,2.3858198E-3,-6.786344E-2,-3.4609586E-2,8.763786E-2,-8.021653E-2,-4.4657167E-2,-1.619117E-2,-9.060265E-2,-6.1812516E-2,-1.5422799E-2,-3.3508E-2,-8.027284E-2,-7.014551E-2,-4.665278E-2],"split_indices":[3,3,2,0,0,3,2,0,0,3,0,1,3,3,1,2,0,1,2,3,2,1,0,2,1,0,2,2,0,1,3,2,2,0,2,1,1,2,1,1,0,2,1,2,2,1,2,3,0,2,0,2,0,0,3,0,3,3,1,1,0,0,0,0,0,0,0,0,0,0,0,0,0,0,0,0,0,0,0,0,0,0,0,0,0,0,0,0,0,0,0,0,0,0,0,0,0,0,0,0,0,0,0,0,0,0,0,0,0,0,0,0,0,0,0,0,0,0,0,0,0,0,0,0,0],"split_type":[0,0,0,0,0,0,0,0,0,0,0,0,0,0,0,0,0,0,0,0,0,0,0,0,0,0,0,0,0,0,0,0,0,0,0,0,0,0,0,0,0,0,0,0,0,0,0,0,0,0,0,0,0,0,0,0,0,0,0,0,0,0,0,0,0,0,0,0,0,0,0,0,0,0,0,0,0,0,0,0,0,0,0,0,0,0,0,0,0,0,0,0,0,0,0,0,0,0,0,0,0,0,0,0,0,0,0,0,0,0,0,0,0,0,0,0,0,0,0,0,0,0,0,0,0],"sum_hessian":[1.8855062E6,1.76375E6,1.2175621E5,1.5973582E6,1.6639178E5,1.0698913E5,1.4767079E4,1.5948692E6,2.488936E3,1.4393044E5,2.2461352E4,3.48008E4,7.218833E4,1.2045196E4,2.7218828E3,1.585198E6,9.671287E3,1.3790413E3,1.1098949E3,1.318156E5,1.2114849E4,1.819974E4,4.2616113E3,2.8301057E4,6.499745E3,6.892388E4,3.2644514E3,8.2816156E2,1.1217034E4,1.4921035E3,1.2297792E3,1.5851885E6,9.428083E0,6.5115977E3,3.1596892E3,1.2957704E3,8.327081E1,7.418692E2,3.6802567E2,9.964228E4,3.2173309E4,1.17681045E4,3.467443E2,1.774376E4,4.559805E2,3.5558723E3,7.05739E2,2.3906094E3,2.5910447E4,6.2608857E3,2.3885944E2,6.6185164E4,2.7387166E3,1.2475637E3,2.0168877E3,6.0995795E2,2.1820363E2,3.3932256E3,7.823809E3,3.7684955E2,1.115254E3,1.9730314E0,1.2278062E3,1.585169E6,1.9499355E1,1.106364E0,8.32172E0,6.03485E3,4.767474E2,3.1051108E3,5.4578403E1,3.5648312E2,9.392873E2,7.235958E1,1.0911237E1,7.371046E2,4.764579E0,7.561932E1,2.9240634E2,9.741536E4,2.2269172E3,1.6957959E3,3.0477514E4,1.7900764E3,9.978027E3,2.8378635E2,6.2957947E1,1.5348975E3,1.6208862E4,4.4306503E2,1.2915456E1,2.5528595E2,3.3005864E3,4.9094705E2,2.1479193E2,1.7094304E3,6.811789E2,2.0844652E4,5.0657954E3,4.5637173E2,5.804514E3,1.2878216E1,2.2598122E2,2.9033975E3,6.3281766E4,2.4175225E3,3.2119424E2,7.540255E2,4.9353824E2,1.1924598E3,8.2442786E2,6.9853836E1,5.4010406E2,2.005028E2,1.7700829E1,3.0819075E3,3.11318E2,4.3324436E1,7.780485E3,2.0375914E2,1.7309041E2,9.319226E1,1.02206177E3,1.3488902E2,1.0929172E3],"tree_param":{"num_deleted":"0","num_feature":"4","num_nodes":"125","size_leaf_vector":"1"}},{"base_weights":[-5.495422E-1,-5.5068386E-1,-5.1724577E-1,-5.496999E-1,-5.578204E-1,-5.2584153E-1,-4.8272038E-1,-5.497854E-1,-5.1855254E-1,-5.604016E-1,-5.4271126E-1,-5.2893156E-1,-5.015791E-1,-4.7688538E-1,-5.564621E-1,-5.497865E-1,-2.938032E-1,-5.043616E-1,-5.2558666E-1,-5.6174827E-1,-5.500859E-1,-5.1992357E-1,-5.441816E-1,-1.6076325E-1,-5.2725095E-1,-4.9402377E-1,-5.364273E-1,-4.97655E-1,-4.515769E-1,-2.8779784E-1,-1.6725194E-1,-1.6492477E-1,-5.5883175E-1,8.612861E-2,-1.4745747E-1,-1.5276866E-1,-4.2278814E-1,-1.5791984E-1,-3.5474756E-1,-1.6870871E-1,-1.6724637E-1,-5.501306E-1,2.9879754E-2,-1.6100484E-1,-1.5111077E-1,-1.6519697E-1,-5.383289E-1,6.114429E-2,-5.2727747E-1,-1.5474205E-1,-4.8518813E-1,-4.4050696E-1,-1.643609E-1,-5.023035E-1,-4.6995616E-1,-4.440089E-1,-4.9531004E-1,-1.1333593E-1,-4.0143408E-2,-1.678339E-1,-1.0620571E-1,4.6731696E-2,-1.3860485E-1,3.677432E-2,-1.2060923E-1,-1.6591132E-1,-1.6308662E-1,7.89102E-3,-1.6151597E-1,-1.5836151E-1,-1.508215E-1,-1.20070234E-1,-1.4627744E-1,-1.164189E-1,-1.4943245E-1,-1.5169393E-1,-1.4454083E-1,-1.4561445E-1,-1.2256876E-1,-1.36387E-1,-1.2613003E-1,-2.0076085E-2,-1.4890487E-1],"categories":[],"categories_nodes":[],"categories_segments":[],"categories_sizes":[],"default_left":[0,0,0,0,0,0,0,0,0,0,0,0,0,0,0,0,0,0,0,0,0,0,0,0,0,0,0,0,0,0,0,0,0,0,0,0,0,0,0,0,0,0,0,0,0,0,0,0,0,0,0,0,0,0,0,0,0,0,0,0,0,0,0,0,0,0,0,0,0,0,0,0,0,0,0,0,0,0,0,0,0,0,0],"id":15,"left_children":[1,3,5,7,9,11,13,15,17,19,21,23,25,27,29,31,33,35,37,39,41,43,45,-1,47,49,51,53,55,57,-1,-1,59,-1,-1,-1,61,-1,63,-1,-1,65,-1,-1,-1,-1,67,-1,69,-1,71,73,-1,75,77,79,81,-1,-1,-1,-1,-1,-1,-1,-1,-1,-1,-1,-1,-1,-1,-1,-1,-1,-1,-1,-1,-1,-1,-1,-1,-1,-1],"loss_changes":[6.6625E1,1.2E1,1.813086E1,3.84375E0,7.96875E0,3.4521484E0,5.053955E0,2.8125E-1,1.574707E-1,2.2109375E0,7.558594E-1,2.3144531E-1,1.2150879E0,5.800049E0,9.21936E-2,1.875E-1,1.1820519E0,3.5147095E-1,2.029419E-1,1.015625E-1,6.645508E-1,2.4658203E-1,8.066406E-1,0E0,7.939453E-1,6.4123535E-1,8.4524536E-1,5.732422E-1,1.4936523E0,2.6405305E-2,0E0,0E0,5.891113E-1,0E0,0E0,0E0,2.0298634E0,0E0,4.183774E-1,0E0,0E0,9.6191406E-2,0E0,0E0,0E0,0E0,5.136719E-1,0E0,2.5195312E-1,0E0,4.8132324E-1,1.4084625E-1,0E0,1.2438965E-1,6.718445E-1,9.157715E-1,3.030548E-1,0E0,0E0,0E0,0E0,0E0,0E0,0E0,0E0,0E0,0E0,0E0,0E0,0E0,0E0,0E0,0E0,0E0,0E0,0E0,0E0,0E0,0E0,0E0,0E0,0E0,0E0],"parents":[2147483647,0,0,1,1,2,2,3,3,4,4,5,5,6,6,7,7,8,8,9,9,10,10,11,11,12,12,13,13,14,14,15,15,16,16,17,17,18,18,19,19,20,20,21,21,22,22,24,24,25,25,26,26,27,27,28,28,29,29,32,32,36,36,38,38,41,41,46,46,48,48,50,50,51,51,53,53,54,54,55,55,56,56],"right_children":[2,4,6,8,10,12,14,16,18,20,22,24,26,28,30,32,34,36,38,40,42,44,46,-1,48,50,52,54,56,58,-1,-1,60,-1,-1,-1,62,-1,64,-1,-1,66,-1,-1,-1,-1,68,-1,70,-1,72,74,-1,76,78,80,82,-1,-1,-1,-1,-1,-1,-1,-1,-1,-1,-1,-1,-1,-1,-1,-1,-1,-1,-1,-1,-1,-1,-1,-1,-1,-1],"split_conditions":[4.03E2,4.8E1,4.99E2,1.84E2,3.66E2,5.07E2,7.02E2,3.96E2,2.82E2,3.28E2,4.8E1,3.75E2,5.94E2,5.17E2,5.07E2,4.8E1,4.13E2,2.72E2,5.49E2,2.66E2,5.49E2,4.25E2,3.63E2,-1.6076325E-1,4.8E1,4.23E2,4.8E1,5.12E2,5.94E2,7.02E2,-1.6725194E-1,-1.6492477E-1,2.08E2,8.612861E-2,-1.4745747E-1,-1.5276866E-1,2.11E2,-1.5791984E-1,3.56E2,-1.6870871E-1,-1.6724637E-1,3.71E2,2.9879754E-2,-1.6100484E-1,-1.5111077E-1,-1.6519697E-1,1.46E2,6.114429E-2,5.12E2,-1.5474205E-1,4.27E2,7.02E2,-1.643609E-1,5.3E2,5.23E2,5.49E2,4.05E2,-1.1333593E-1,-4.0143408E-2,-1.678339E-1,-1.0620571E-1,4.6731696E-2,-1.3860485E-1,3.677432E-2,-1.2060923E-1,-1.6591132E-1,-1.6308662E-1,7.89102E-3,-1.6151597E-1,-1.5836151E-1,-1.508215E-1,-1.20070234E-1,-1.4627744E-1,-1.164189E-1,-1.4943245E-1,-1.5169393E-1,-1.4454083E-1,-1.4561445E-1,-1.2256876E-1,-1.36387E-1,-1.2613003E-1,-2.0076085E-2,-1.4890487E-1],"split_indices":[0,3,3,0,3,0,2,1,0,0,0,3,0,1,3,0,1,2,2,0,2,3,0,0,1,3,2,0,2,0,0,0,2,0,0,0,1,0,1,0,0,0,0,0,0,0,2,0,1,0,3,0,0,2,2,3,0,0,0,0,0,0,0,0,0,0,0,0,0,0,0,0,0,0,0,0,0,0,0,0,0,0,0],"split_type":[0,0,0,0,0,0,0,0,0,0,0,0,0,0,0,0,0,0,0,0,0,0,0,0,0,0,0,0,0,0,0,0,0,0,0,0,0,0,0,0,0,0,0,0,0,0,0,0,0,0,0,0,0,0,0,0,0,0,0,0,0,0,0,0,0,0,0,0,0,0,0,0,0,0,0,0,0,0,0,0,0,0,0],"sum_hessian":[1.8139841E6,1.752034E6,6.195003E4,1.5398104E6,2.1222361E5,4.9589547E4,1.2360483E4,1.5355789E6,4.231569E3,1.8122677E5,3.0996834E4,4.3968895E4,5.6206553E3,1.1461063E4,8.994194E2,1.5355708E6,8.06296E0,1.4264667E3,2.8051025E3,1.602532E5,2.0973564E4,1.9002932E3,2.9096541E4,8.504155E3,3.546474E4,4.631654E3,9.8900134E2,6.2847583E3,5.1763057E3,4.5536776E0,8.948657E2,1.5293169E6,6.253886E3,1.9327114E0,6.1302485E0,1.3411998E3,8.526678E1,2.7897488E3,1.5353659E1,1.3994906E5,2.0304145E4,2.0972273E4,1.290777E0,9.1885944E2,9.814337E2,1.3769776E4,1.5326765E4,1.0072006E0,3.546373E4,1.320003E3,3.311651E3,1.0961347E2,8.793879E2,5.3669375E3,9.178207E2,4.4222E3,7.5410547E2,1.9567767E0,2.596901E0,6.2334517E3,2.0434454E1,5.2255826E0,8.004119E1,1.240293E0,1.4113365E1,1.4438964E4,6.5333096E3,1.5185935E0,1.5325246E4,3.460526E4,8.5846924E2,9.571792E1,3.2159329E3,6.1425045E1,4.818843E1,4.5941333E3,7.72804E2,7.280021E2,1.898186E2,3.0367E3,1.3855E3,1.9837178E0,7.5212177E2],"tree_param":{"num_deleted":"0","num_feature":"4","num_nodes":"83","size_leaf_vector":"1"}},{"base_weights":[6.2471044E-1,6.2907857E-1,5.515873E-1,6.26527E-1,6.519476E-1,5.6069624E-1,4.9691546E-1,6.2672144E-1,5.691251E-1,6.62251E-1,6.032397E-1,5.650601E-1,5.0622934E-1,5.126849E-1,4.8577294E-1,6.2656635E-1,6.630601E-1,5.8525693E-1,4.9992728E-1,6.6562974E-1,6.1785877E-1,6.2155926E-1,5.7359594E-1,5.8034575E-1,5.555714E-1,5.210158E-1,4.8179266E-1,5.213604E-1,4.8129195E-1,4.915026E-1,4.7788867E-1,1.8797027E-1,3.759427E-1,6.639632E-1,4.783091E-1,5.899505E-1,5.0537544E-1,5.165946E-1,4.6840608E-1,6.6581106E-1,4.6055025E-1,6.20816E-1,4.7755885E-1,6.2481564E-1,5.4171336E-1,5.832434E-1,5.215649E-1,5.917758E-1,5.5918956E-1,5.46777E-1,5.663474E-1,4.919644E-1,5.273856E-1,7.951753E-2,4.8278585E-1,4.329091E-1,5.2466637E-1,4.904858E-1,4.5307413E-1,5.619214E-1,4.8981795E-1,4.6233135E-1,4.8605317E-1,-1.9031118E-1,1.5551159E-1,2.0027801E-1,1.9102696E-1,8.498964E-2,1.7345859E-1,1.7794356E-1,1.5061742E-1,1.410726E-1,1.6633385E-1,1.4639439E-1,1.6548683E-1,1.10427655E-1,1.4584568E-1,2.0036462E-1,1.9599803E-1,-1.3442959E-1,1.417654E-1,1.780618E-1,1.8958887E-1,1.0321822E-1,1.5510945E-1,1.737715E-1,1.8873057E-1,1.658277E-1,1.21105395E-1,1.5954885E-1,1.7690524E-1,-1.5590492E-2,1.5678006E-1,1.7931199E-1,1.5463798E-1,1.4684062E-1,1.6910718E-1,1.6510332E-1,1.3509008E-1,1.2943129E-1,1.705895E-1,1.4801735E-1,-1.6860649E-2,1.5844975E-1,1.08878225E-1,-1.2486669E-1,6.197545E-2,1.5649441E-1,1.4281411E-1,1.5252888E-1,1.0117143E-1,9.882052E-2,1.5786289E-1,1.1259559E-1,1.4812884E-1,1.1237902E-1,1.4383353E-1,1.730602E-1,6.729658E-2,1.2753266E-1,1.4787535E-1,1.4025658E-1,1.05896644E-1,-1.9677952E-3,1.4597921E-1],"categories":[],"categories_nodes":[],"categories_segments":[],"categories_sizes":[],"default_left":[0,0,0,0,0,0,0,0,0,0,0,0,0,0,0,0,0,0,0,0,0,0,0,0,0,0,0,0,0,0,0,0,0,0,0,0,0,0,0,0,0,0,0,0,0,0,0,0,0,0,0,0,0,0,0,0,0,0,0,0,0,0,0,0,0,0,0,0,0,0,0,0,0,0,0,0,0,0,0,0,0,0,0,0,0,0,0,0,0,0,0,0,0,0,0,0,0,0,0,0,0,0,0,0,0,0,0,0,0,0,0,0,0,0,0,0,0,0,0,0,0,0,0,0,0],"id":16,"left_children":[1,3,5,7,9,11,13,15,17,19,21,23,25,27,29,31,33,35,37,39,41,43,45,47,49,51,53,55,57,59,61,-1,63,65,67,69,71,73,75,77,79,81,83,85,87,89,91,93,95,97,99,101,103,105,107,109,111,113,115,117,119,121,123,-1,-1,-1,-1,-1,-1,-1,-1,-1,-1,-1,-1,-1,-1,-1,-1,-1,-1,-1,-1,-1,-1,-1,-1,-1,-1,-1,-1,-1,-1,-1,-1,-1,-1,-1,-1,-1,-1,-1,-1,-1,-1,-1,-1,-1,-1,-1,-1,-1,-1,-1,-1,-1,-1,-1,-1,-1,-1,-1,-1,-1,-1],"loss_changes":[1.12275E3,1.9325E2,9.842969E1,3.3E1,1.6671875E2,4.0097656E1,4.726074E0,1.625E1,1.0967529E1,4.0804688E1,3.1220703E1,2.2488281E1,4.305664E0,2.9372559E0,5.15625E-1,8.75E-1,1.7885742E0,2.7666016E0,7.635498E-1,9.1953125E0,7.7753906E0,9.004883E0,1.08515625E1,1.4230469E1,8.886719E0,1.1921387E0,1.8664551E0,2.4511719E0,4.387207E-1,8.6157227E-1,6.678467E-1,0E0,2.7093217E0,8.1591797E-1,1.1020193E0,1.8684082E0,5.334015E-1,9.7579956E-1,1.0185394E0,6.15625E0,2.7075348E0,5.4160156E0,1.9610443E0,6.3779297E0,1.9348145E0,5.8916016E0,2.0968018E0,1.7378906E1,6.35791E0,1.815625E1,1.3186523E1,1.1427002E0,6.320801E-1,9.010363E-1,9.9694824E-1,2.2541275E0,2.4858398E0,5.352783E-1,1.1431427E0,9.662781E-1,1.6696777E0,1.2192993E0,1.2333984E0,0E0,0E0,0E0,0E0,0E0,0E0,0E0,0E0,0E0,0E0,0E0,0E0,0E0,0E0,0E0,0E0,0E0,0E0,0E0,0E0,0E0,0E0,0E0,0E0,0E0,0E0,0E0,0E0,0E0,0E0,0E0,0E0,0E0,0E0,0E0,0E0,0E0,0E0,0E0,0E0,0E0,0E0,0E0,0E0,0E0,0E0,0E0,0E0,0E0,0E0,0E0,0E0,0E0,0E0,0E0,0E0,0E0,0E0,0E0,0E0,0E0,0E0],"parents":[2147483647,0,0,1,1,2,2,3,3,4,4,5,5,6,6,7,7,8,8,9,9,10,10,11,11,12,12,13,13,14,14,15,15,16,16,17,17,18,18,19,19,20,20,21,21,22,22,23,23,24,24,25,25,26,26,27,27,28,28,29,29,30,30,32,32,33,33,34,34,35,35,36,36,37,37,38,38,39,39,40,40,41,41,42,42,43,43,44,44,45,45,46,46,47,47,48,48,49,49,50,50,51,51,52,52,53,53,54,54,55,55,56,56,57,57,58,58,59,59,60,60,61,61,62,62],"right_children":[2,4,6,8,10,12,14,16,18,20,22,24,26,28,30,32,34,36,38,40,42,44,46,48,50,52,54,56,58,60,62,-1,64,66,68,70,72,74,76,78,80,82,84,86,88,90,92,94,96,98,100,102,104,106,108,110,112,114,116,118,120,122,124,-1,-1,-1,-1,-1,-1,-1,-1,-1,-1,-1,-1,-1,-1,-1,-1,-1,-1,-1,-1,-1,-1,-1,-1,-1,-1,-1,-1,-1,-1,-1,-1,-1,-1,-1,-1,-1,-1,-1,-1,-1,-1,-1,-1,-1,-1,-1,-1,-1,-1,-1,-1,-1,-1,-1,-1,-1,-1,-1,-1,-1,-1],"split_conditions":[3.42E2,4.8E1,4.99E2,2.16E2,2.85E2,4.99E2,5.23E2,4.8E1,4.27E2,2.66E2,3.51E2,3.92E2,5.3E2,5.23E2,5.65E2,3.9E2,2.26E2,3.83E2,4.7E2,3.12E2,3.38E2,3.59E2,4.09E2,3.87E2,4.35E2,4.72E2,3E2,3.52E2,5.49E2,4.09E2,5.17E2,1.8797027E-1,4.05E2,1.61E2,1.93E2,4.05E2,3.92E2,3.68E2,4.87E2,1.97E2,1.24E2,2.3E2,2.96E2,2.7E2,4.07E2,3.21E2,2.29E2,3.96E2,3.43E2,4.56E2,3.75E2,5E2,5.65E2,4.8E1,4.87E2,2.93E2,4.11E2,3.98E2,5.38E2,4.74E2,4.7E2,5.12E2,4.7E2,-1.9031118E-1,1.5551159E-1,2.0027801E-1,1.9102696E-1,8.498964E-2,1.7345859E-1,1.7794356E-1,1.5061742E-1,1.410726E-1,1.6633385E-1,1.4639439E-1,1.6548683E-1,1.10427655E-1,1.4584568E-1,2.0036462E-1,1.9599803E-1,-1.3442959E-1,1.417654E-1,1.780618E-1,1.8958887E-1,1.0321822E-1,1.5510945E-1,1.737715E-1,1.8873057E-1,1.658277E-1,1.21105395E-1,1.5954885E-1,1.7690524E-1,-1.5590492E-2,1.5678006E-1,1.7931199E-1,1.5463798E-1,1.4684062E-1,1.6910718E-1,1.6510332E-1,1.3509008E-1,1.2943129E-1,1.705895E-1,1.4801735E-1,-1.6860649E-2,1.5844975E-1,1.08878225E-1,-1.2486669E-1,6.197545E-2,1.5649441E-1,1.4281411E-1,1.5252888E-1,1.0117143E-1,9.882052E-2,1.5786289E-1,1.1259559E-1,1.4812884E-1,1.1237902E-1,1.4383353E-1,1.730602E-1,6.729658E-2,1.2753266E-1,1.4787535E-1,1.4025658E-1,1.05896644E-1,-1.9677952E-3,1.4597921E-1],"split_indices":[3,3,3,0,0,0,3,0,0,3,0,3,0,2,3,2,2,2,1,1,1,1,1,0,1,1,2,1,2,2,1,0,2,0,1,1,0,1,1,3,3,1,3,1,1,1,2,2,2,0,0,2,2,1,1,1,2,0,1,0,2,1,2,0,0,0,0,0,0,0,0,0,0,0,0,0,0,0,0,0,0,0,0,0,0,0,0,0,0,0,0,0,0,0,0,0,0,0,0,0,0,0,0,0,0,0,0,0,0,0,0,0,0,0,0,0,0,0,0,0,0,0,0,0,0],"split_type":[0,0,0,0,0,0,0,0,0,0,0,0,0,0,0,0,0,0,0,0,0,0,0,0,0,0,0,0,0,0,0,0,0,0,0,0,0,0,0,0,0,0,0,0,0,0,0,0,0,0,0,0,0,0,0,0,0,0,0,0,0,0,0,0,0,0,0,0,0,0,0,0,0,0,0,0,0,0,0,0,0,0,0,0,0,0,0,0,0,0,0,0,0,0,0,0,0,0,0,0,0,0,0,0,0,0,0,0,0,0,0,0,0,0,0,0,0,0,0,0,0,0,0,0,0],"sum_hessian":[3.5159858E6,3.3177835E6,1.982024E5,2.9847882E6,3.3299525E5,1.6988784E5,2.8314562E4,2.974702E6,1.0086128E4,2.748441E5,5.8151152E4,1.5727755E5,1.2610288E4,1.1704639E4,1.6609924E4,2.9620785E6,1.2623603E4,8.173266E3,1.9128619E3,2.5539173E5,1.9452371E4,3.592802E4,2.2223135E4,6.0214965E4,9.7062586E4,7.843763E3,4.7665254E3,9.158141E3,2.5464983E3,9.583821E3,7.026102E3,2.9620628E6,1.5542821E1,1.2559618E4,6.398444E1,7.7136504E3,4.596157E2,1.2411809E3,6.71681E2,2.5516386E5,2.2787106E2,1.9047463E4,4.0490717E2,3.4513605E4,1.4144119E3,1.8738473E4,3.4846626E3,3.9076293E4,2.113867E4,5.347412E4,4.3588465E4,1.4246124E3,6.419151E3,1.1938898E1,4.7545864E3,3.3471616E2,8.823425E3,1.908346E3,6.381523E2,2.1615047E2,9.367671E3,2.438055E3,4.5880474E3,1.4936647E0,1.4049156E1,1.1060303E4,1.4993151E3,2.2971945E1,4.1012497E1,7.437562E3,2.7608835E2,2.7401236E2,1.8560332E2,6.913623E2,5.4981854E2,1.0423188E2,5.6744916E2,2.1881423E5,3.634963E4,2.4967089E0,2.2537434E2,5.541489E3,1.3505975E4,9.461883E1,3.1028833E2,2.978467E3,3.1535139E4,1.3068296E3,1.0758225E2,2.0953672E3,1.6643105E4,6.1900573E0,3.4784724E3,3.6252125E4,2.8241685E3,1.2885671E3,1.9850104E4,5.156282E4,1.9113041E3,7.288849E2,4.2859582E4,1.4210138E3,3.5986187E0,6.3866406E3,3.2510265E1,1.9715391E0,9.967359E0,6.913351E2,4.0632515E3,1.8464635E2,1.5006982E2,7.0867134E1,8.752558E3,5.599418E1,1.8523517E3,1.6432935E2,4.7382294E2,2.0630829E2,9.842186E0,4.345522E2,8.933118E3,2.3244365E3,1.1361838E2,5.050465E0,4.5829966E3],"tree_param":{"num_deleted":"0","num_feature":"4","num_nodes":"125","size_leaf_vector":"1"}},{"base_weights":[-5.371708E-1,-5.375305E-1,-5.050583E-1,-5.367149E-1,-5.4249966E-1,-4.4392422E-1,-5.0667566E-1,-5.367229E-1,-3.5046774E-1,-5.453977E-1,-5.3251797E-1,-1.5094201E-1,-4.0395093E-1,-5.280392E-1,-5.010194E-1,-1.6101968E-1,-4.7997034E-1,-3.8785878E-1,-1.7873739E-1,-1.6376334E-1,-1.6197653E-1,-5.3457123E-1,-5.10428E-1,7.364058E-2,-4.126191E-1,-1.5950957E-1,-4.8613656E-1,-5.123654E-1,-4.9538833E-1,-5.024795E-1,-3.8461608E-1,-3.3608285E-1,-1.3798387E-1,-1.2443088E-2,-6.051032E-2,-5.3940773E-1,-1.5973537E-1,-1.580536E-1,-4.9814537E-1,-9.7796544E-2,2.9383668E-1,-4.3191776E-1,-2.9730427E-1,-4.3065503E-1,-5.0841236E-1,-1.5543415E-1,-4.8824596E-1,-4.680614E-1,-4.9732932E-1,-1.5372282E-1,-8.3795294E-2,1.09568216E-1,-1.3363735E-1,-1.0750041E-1,4.314041E-3,-1.6184503E-1,-8.887119E-2,-9.853275E-2,-1.4963402E-1,2.1060944E-2,1.1589383E-1,-1.5096697E-1,-1.22306146E-1,1.03882246E-1,-1.0066133E-1,-1.3658914E-1,-6.320686E-2,-1.5644117E-1,-9.920792E-2,-1.3661492E-1,-1.501521E-1,-1.4112212E-1,-7.8738436E-2,-1.5083328E-1,-1.468423E-1],"categories":[],"categories_nodes":[],"categories_segments":[],"categories_sizes":[],"default_left":[0,0,0,0,0,0,0,0,0,0,0,0,0,0,0,0,0,0,0,0,0,0,0,0,0,0,0,0,0,0,0,0,0,0,0,0,0,0,0,0,0,0,0,0,0,0,0,0,0,0,0,0,0,0,0,0,0,0,0,0,0,0,0,0,0,0,0,0,0,0,0,0,0,0,0],"id":17,"left_children":[1,3,5,7,9,11,13,15,17,19,21,-1,23,25,27,-1,29,31,33,-1,-1,35,37,39,41,-1,43,45,47,49,51,53,-1,-1,-1,55,-1,-1,57,-1,59,61,63,65,67,-1,69,71,73,-1,-1,-1,-1,-1,-1,-1,-1,-1,-1,-1,-1,-1,-1,-1,-1,-1,-1,-1,-1,-1,-1,-1,-1,-1,-1],"loss_changes":[1.621875E1,5.40625E0,1.3391113E0,1.59375E0,5.4570312E0,7.808304E-1,1.5966797E0,4.0625E-1,2.8243303E-1,1.1328125E-1,1.7587891E0,0E0,1.0788803E0,2.3309326E-1,5.253906E-1,0E0,2.5497818E-1,1.0135651E-2,2.8353572E-2,0E0,0E0,1.3183594E-1,5.097656E-1,5.677467E-1,4.2550278E-1,0E0,1.13666534E-1,3.03833E-1,2.010498E-1,2.2404861E-1,2.1767502E0,2.3440647E-1,0E0,0E0,0E0,6.8359375E-2,0E0,0E0,7.421875E-2,0E0,5.5270553E-2,1.5942383E-1,1.0731838E0,3.5742378E-1,2.60334E-1,0E0,9.056091E-2,1.4640808E-1,8.0322266E-2,0E0,0E0,0E0,0E0,0E0,0E0,0E0,0E0,0E0,0E0,0E0,0E0,0E0,0E0,0E0,0E0,0E0,0E0,0E0,0E0,0E0,0E0,0E0,0E0,0E0,0E0],"parents":[2147483647,0,0,1,1,2,2,3,3,4,4,5,5,6,6,7,7,8,8,9,9,10,10,12,12,13,13,14,14,16,16,17,17,18,18,21,21,22,22,23,23,24,24,26,26,27,27,28,28,29,29,30,30,31,31,35,35,38,38,40,40,41,41,42,42,43,43,44,44,46,46,47,47,48,48],"right_children":[2,4,6,8,10,12,14,16,18,20,22,-1,24,26,28,-1,30,32,34,-1,-1,36,38,40,42,-1,44,46,48,50,52,54,-1,-1,-1,56,-1,-1,58,-1,60,62,64,66,68,-1,70,72,74,-1,-1,-1,-1,-1,-1,-1,-1,-1,-1,-1,-1,-1,-1,-1,-1,-1,-1,-1,-1,-1,-1,-1,-1,-1,-1],"split_conditions":[4.84E2,4.8E1,4.8E1,7.02E2,3.8E2,4.37E2,4.41E2,5.17E2,5.65E2,3.77E2,5.03E2,-1.5094201E-1,4.41E2,5.94E2,5.03E2,-1.6101968E-1,4.48E2,7.03E2,7.02E2,-1.6376334E-1,-1.6197653E-1,3.85E2,4.31E2,4.96E2,7.03E2,-1.5950957E-1,4.67E2,5.17E2,4.65E2,7.03E2,5.23E2,5.94E2,-1.3798387E-1,-1.2443088E-2,-6.051032E-2,5.38E2,-1.5973537E-1,-1.580536E-1,4.03E2,-9.7796544E-2,5.49E2,5.07E2,5.94E2,4.59E2,4.35E2,-1.5543415E-1,4.9E2,5.65E2,5.3E2,-1.5372282E-1,-8.3795294E-2,1.09568216E-1,-1.3363735E-1,-1.0750041E-1,4.314041E-3,-1.6184503E-1,-8.887119E-2,-9.853275E-2,-1.4963402E-1,2.1060944E-2,1.1589383E-1,-1.5096697E-1,-1.22306146E-1,1.03882246E-1,-1.0066133E-1,-1.3658914E-1,-6.320686E-2,-1.5644117E-1,-9.920792E-2,-1.3661492E-1,-1.501521E-1,-1.4112212E-1,-7.8738436E-2,-1.5083328E-1,-1.468423E-1],"split_indices":[3,3,0,0,0,2,0,0,2,3,0,0,2,2,3,0,2,1,2,0,0,3,3,3,1,0,1,0,1,1,0,1,0,0,0,2,0,0,1,0,3,3,2,1,0,0,3,2,0,0,0,0,0,0,0,0,0,0,0,0,0,0,0,0,0,0,0,0,0,0,0,0,0,0,0],"split_type":[0,0,0,0,0,0,0,0,0,0,0,0,0,0,0,0,0,0,0,0,0,0,0,0,0,0,0,0,0,0,0,0,0,0,0,0,0,0,0,0,0,0,0,0,0,0,0,0,0,0,0,0,0,0,0,0,0,0,0,0,0,0,0,0,0,0,0,0,0,0,0,0,0,0,0],"sum_hessian":[1.4265096E6,1.4106941E6,1.5815449E4,1.211903E6,1.9879112E5,4.1473837E2,1.5400711E4,1.2118492E6,5.3780872E1,1.5402003E5,4.47711E4,1.6247032E2,2.5226805E2,3.2046099E3,1.2196101E4,1.2116414E6,2.0784018E2,4.313131E1,1.0649564E1,1.4151375E5,1.2506277E4,4.0942383E4,3.8287166E3,4.3633723E0,2.4790468E2,2.9364814E3,2.6812833E2,4.0154502E3,8.1806504E3,1.6469339E2,4.3146793E1,2.8397385E1,1.4733923E1,1.9285101E0,8.721053E0,1.2399932E4,2.8542453E4,1.6206398E3,2.208077E3,1.3794297E0,2.9839425E0,2.1001228E2,3.78924E1,8.26379E1,1.8549042E2,3.2260974E3,7.893529E2,5.5858496E2,7.6220654E3,1.5643637E2,8.257016E0,2.8626926E0,4.02841E1,2.6680883E1,1.716503E0,1.23948545E4,5.0770435E0,1.0159057E1,2.1979177E3,1.3875644E0,1.5963781E0,4.825128E1,1.61761E2,1.6730676E0,3.621933E1,7.335078E1,9.2871275E0,1.7099228E2,1.4498139E1,2.2484596E2,5.645069E2,5.510106E2,7.57429E0,4.463299E3,3.1587666E3],"tree_param":{"num_deleted":"0","num_feature":"4","num_nodes":"75","size_leaf_vector":"1"}},{"base_weights":[-4.4126102E-1,-4.523432E-1,-2.8961828E-1,-4.470045E-1,-5.045859E-1,-3.3270368E-1,-2.653542E-1,-4.472933E-1,-2.7330098E-1,-5.251177E-1,-3.7909496E-1,-3.5197827E-1,-2.6927623E-1,-2.781438E-1,-1.9816077E-1,-4.4704565E-1,-4.8834053E-1,-3.2853666E-1,-2.075701E-1,-5.3631765E-1,-4.4944912E-1,-4.3043768E-1,-3.2515162E-1,-3.5892546E-1,-2.2594933E-1,-2.7619827E-1,-9.657507E-2,-2.8198007E-1,-1.6596855E-1,-2.0938142E-1,-1.0775284E-1,-4.4704854E-1,-2.0785525E-2,-5.373922E-1,-3.9193904E-1,-3.530762E-1,-1.6478088E-1,-1.4794035E-1,-2.2098029E-1,-5.3661543E-1,1.1187897E-1,-4.5592904E-1,-1.5879062E-1,-4.379558E-1,-2.0315935E-1,-3.3953366E-1,-1.3449402E-1,-3.651104E-1,-2.2084193E-1,3.6248114E-2,-2.5153354E-1,-1.8983397E-1,-2.9174748E-1,6.205406E-2,-1.3304685E-1,-1.9028957E-1,-2.8635576E-1,-1.5269668E-1,-2.651564E-1,-1.5861912E-1,-2.3206392E-1,-1.23653136E-1,-1.0507218E-1,-1.341151E-1,-8.6867474E-2,1.9219974E-1,-5.2291397E-2,-1.6243438E-1,-1.4562936E-1,-1.194413E-1,-2.1734476E-2,-7.225676E-2,-1.2044669E-1,-6.885329E-2,-2.2885699E-2,-2.256504E-2,-8.390139E-2,-8.248542E-2,-6.2107723E-2,-1.6152519E-1,-1.4588037E-1,1.1157799E-2,2.9908636E-1,-1.0606382E-1,-1.4042051E-1,-1.84341E-2,-7.142288E-2,-1.0309874E-1,-1.3490035E-1,-8.303194E-2,-1.2849839E-2,-6.8126746E-2,-1.0594737E-1,-3.585215E-2,-1.0373279E-1,-8.0389805E-2,-1.1211856E-1,-4.36729E-2,-9.005606E-2,-3.6960002E-2,3.2095637E-2,-8.2571656E-2,-5.6175343E-3,-6.700894E-2,-3.7236057E-2,-4.97134E-2,-8.959149E-2,9.492961E-3,2.1650635E-1,-3.080227E-2,-1.01310134E-1,-7.0007466E-2,